//Numpy array shape [48, 1, 32]
//Min -0.671875000000
//Max 0.562500000000
//Number of zeros 0

#ifndef B13_H_
#define B13_H_

[[intel::fpga_memory]] static constexpr b13_t b13 = {{0.1171875, -0.4765625, 0.4453125, 0.3359375, -0.5078125, 0.4375000, 0.2578125, -0.1015625, 0.2734375, -0.3046875, -0.4296875, 0.1640625, -0.3906250, 0.4531250, 0.3437500, 0.2187500, 0.2343750, -0.6718750, -0.5703125, -0.0312500, 0.2500000, -0.4375000, 0.2890625, 0.2031250, -0.4218750, 0.2500000, 0.5625000, -0.2812500, 0.4453125, 0.5078125, 0.3515625, -0.0703125, 0.1171875, -0.4765625, 0.4453125, 0.3359375, -0.5078125, 0.4375000, 0.2578125, -0.1015625, 0.2734375, -0.3046875, -0.4296875, 0.1640625, -0.3906250, 0.4531250, 0.3437500, 0.2187500, 0.2343750, -0.6718750, -0.5703125, -0.0312500, 0.2500000, -0.4375000, 0.2890625, 0.2031250, -0.4218750, 0.2500000, 0.5625000, -0.2812500, 0.4453125, 0.5078125, 0.3515625, -0.0703125, 0.1171875, -0.4765625, 0.4453125, 0.3359375, -0.5078125, 0.4375000, 0.2578125, -0.1015625, 0.2734375, -0.3046875, -0.4296875, 0.1640625, -0.3906250, 0.4531250, 0.3437500, 0.2187500, 0.2343750, -0.6718750, -0.5703125, -0.0312500, 0.2500000, -0.4375000, 0.2890625, 0.2031250, -0.4218750, 0.2500000, 0.5625000, -0.2812500, 0.4453125, 0.5078125, 0.3515625, -0.0703125, 0.1171875, -0.4765625, 0.4453125, 0.3359375, -0.5078125, 0.4375000, 0.2578125, -0.1015625, 0.2734375, -0.3046875, -0.4296875, 0.1640625, -0.3906250, 0.4531250, 0.3437500, 0.2187500, 0.2343750, -0.6718750, -0.5703125, -0.0312500, 0.2500000, -0.4375000, 0.2890625, 0.2031250, -0.4218750, 0.2500000, 0.5625000, -0.2812500, 0.4453125, 0.5078125, 0.3515625, -0.0703125, 0.1171875, -0.4765625, 0.4453125, 0.3359375, -0.5078125, 0.4375000, 0.2578125, -0.1015625, 0.2734375, -0.3046875, -0.4296875, 0.1640625, -0.3906250, 0.4531250, 0.3437500, 0.2187500, 0.2343750, -0.6718750, -0.5703125, -0.0312500, 0.2500000, -0.4375000, 0.2890625, 0.2031250, -0.4218750, 0.2500000, 0.5625000, -0.2812500, 0.4453125, 0.5078125, 0.3515625, -0.0703125, 0.1171875, -0.4765625, 0.4453125, 0.3359375, -0.5078125, 0.4375000, 0.2578125, -0.1015625, 0.2734375, -0.3046875, -0.4296875, 0.1640625, -0.3906250, 0.4531250, 0.3437500, 0.2187500, 0.2343750, -0.6718750, -0.5703125, -0.0312500, 0.2500000, -0.4375000, 0.2890625, 0.2031250, -0.4218750, 0.2500000, 0.5625000, -0.2812500, 0.4453125, 0.5078125, 0.3515625, -0.0703125, 0.1171875, -0.4765625, 0.4453125, 0.3359375, -0.5078125, 0.4375000, 0.2578125, -0.1015625, 0.2734375, -0.3046875, -0.4296875, 0.1640625, -0.3906250, 0.4531250, 0.3437500, 0.2187500, 0.2343750, -0.6718750, -0.5703125, -0.0312500, 0.2500000, -0.4375000, 0.2890625, 0.2031250, -0.4218750, 0.2500000, 0.5625000, -0.2812500, 0.4453125, 0.5078125, 0.3515625, -0.0703125, 0.1171875, -0.4765625, 0.4453125, 0.3359375, -0.5078125, 0.4375000, 0.2578125, -0.1015625, 0.2734375, -0.3046875, -0.4296875, 0.1640625, -0.3906250, 0.4531250, 0.3437500, 0.2187500, 0.2343750, -0.6718750, -0.5703125, -0.0312500, 0.2500000, -0.4375000, 0.2890625, 0.2031250, -0.4218750, 0.2500000, 0.5625000, -0.2812500, 0.4453125, 0.5078125, 0.3515625, -0.0703125, 0.1171875, -0.4765625, 0.4453125, 0.3359375, -0.5078125, 0.4375000, 0.2578125, -0.1015625, 0.2734375, -0.3046875, -0.4296875, 0.1640625, -0.3906250, 0.4531250, 0.3437500, 0.2187500, 0.2343750, -0.6718750, -0.5703125, -0.0312500, 0.2500000, -0.4375000, 0.2890625, 0.2031250, -0.4218750, 0.2500000, 0.5625000, -0.2812500, 0.4453125, 0.5078125, 0.3515625, -0.0703125, 0.1171875, -0.4765625, 0.4453125, 0.3359375, -0.5078125, 0.4375000, 0.2578125, -0.1015625, 0.2734375, -0.3046875, -0.4296875, 0.1640625, -0.3906250, 0.4531250, 0.3437500, 0.2187500, 0.2343750, -0.6718750, -0.5703125, -0.0312500, 0.2500000, -0.4375000, 0.2890625, 0.2031250, -0.4218750, 0.2500000, 0.5625000, -0.2812500, 0.4453125, 0.5078125, 0.3515625, -0.0703125, 0.1171875, -0.4765625, 0.4453125, 0.3359375, -0.5078125, 0.4375000, 0.2578125, -0.1015625, 0.2734375, -0.3046875, -0.4296875, 0.1640625, -0.3906250, 0.4531250, 0.3437500, 0.2187500, 0.2343750, -0.6718750, -0.5703125, -0.0312500, 0.2500000, -0.4375000, 0.2890625, 0.2031250, -0.4218750, 0.2500000, 0.5625000, -0.2812500, 0.4453125, 0.5078125, 0.3515625, -0.0703125, 0.1171875, -0.4765625, 0.4453125, 0.3359375, -0.5078125, 0.4375000, 0.2578125, -0.1015625, 0.2734375, -0.3046875, -0.4296875, 0.1640625, -0.3906250, 0.4531250, 0.3437500, 0.2187500, 0.2343750, -0.6718750, -0.5703125, -0.0312500, 0.2500000, -0.4375000, 0.2890625, 0.2031250, -0.4218750, 0.2500000, 0.5625000, -0.2812500, 0.4453125, 0.5078125, 0.3515625, -0.0703125, 0.1171875, -0.4765625, 0.4453125, 0.3359375, -0.5078125, 0.4375000, 0.2578125, -0.1015625, 0.2734375, -0.3046875, -0.4296875, 0.1640625, -0.3906250, 0.4531250, 0.3437500, 0.2187500, 0.2343750, -0.6718750, -0.5703125, -0.0312500, 0.2500000, -0.4375000, 0.2890625, 0.2031250, -0.4218750, 0.2500000, 0.5625000, -0.2812500, 0.4453125, 0.5078125, 0.3515625, -0.0703125, 0.1171875, -0.4765625, 0.4453125, 0.3359375, -0.5078125, 0.4375000, 0.2578125, -0.1015625, 0.2734375, -0.3046875, -0.4296875, 0.1640625, -0.3906250, 0.4531250, 0.3437500, 0.2187500, 0.2343750, -0.6718750, -0.5703125, -0.0312500, 0.2500000, -0.4375000, 0.2890625, 0.2031250, -0.4218750, 0.2500000, 0.5625000, -0.2812500, 0.4453125, 0.5078125, 0.3515625, -0.0703125, 0.1171875, -0.4765625, 0.4453125, 0.3359375, -0.5078125, 0.4375000, 0.2578125, -0.1015625, 0.2734375, -0.3046875, -0.4296875, 0.1640625, -0.3906250, 0.4531250, 0.3437500, 0.2187500, 0.2343750, -0.6718750, -0.5703125, -0.0312500, 0.2500000, -0.4375000, 0.2890625, 0.2031250, -0.4218750, 0.2500000, 0.5625000, -0.2812500, 0.4453125, 0.5078125, 0.3515625, -0.0703125, 0.1171875, -0.4765625, 0.4453125, 0.3359375, -0.5078125, 0.4375000, 0.2578125, -0.1015625, 0.2734375, -0.3046875, -0.4296875, 0.1640625, -0.3906250, 0.4531250, 0.3437500, 0.2187500, 0.2343750, -0.6718750, -0.5703125, -0.0312500, 0.2500000, -0.4375000, 0.2890625, 0.2031250, -0.4218750, 0.2500000, 0.5625000, -0.2812500, 0.4453125, 0.5078125, 0.3515625, -0.0703125, 0.1171875, -0.4765625, 0.4453125, 0.3359375, -0.5078125, 0.4375000, 0.2578125, -0.1015625, 0.2734375, -0.3046875, -0.4296875, 0.1640625, -0.3906250, 0.4531250, 0.3437500, 0.2187500, 0.2343750, -0.6718750, -0.5703125, -0.0312500, 0.2500000, -0.4375000, 0.2890625, 0.2031250, -0.4218750, 0.2500000, 0.5625000, -0.2812500, 0.4453125, 0.5078125, 0.3515625, -0.0703125, 0.1171875, -0.4765625, 0.4453125, 0.3359375, -0.5078125, 0.4375000, 0.2578125, -0.1015625, 0.2734375, -0.3046875, -0.4296875, 0.1640625, -0.3906250, 0.4531250, 0.3437500, 0.2187500, 0.2343750, -0.6718750, -0.5703125, -0.0312500, 0.2500000, -0.4375000, 0.2890625, 0.2031250, -0.4218750, 0.2500000, 0.5625000, -0.2812500, 0.4453125, 0.5078125, 0.3515625, -0.0703125, 0.1171875, -0.4765625, 0.4453125, 0.3359375, -0.5078125, 0.4375000, 0.2578125, -0.1015625, 0.2734375, -0.3046875, -0.4296875, 0.1640625, -0.3906250, 0.4531250, 0.3437500, 0.2187500, 0.2343750, -0.6718750, -0.5703125, -0.0312500, 0.2500000, -0.4375000, 0.2890625, 0.2031250, -0.4218750, 0.2500000, 0.5625000, -0.2812500, 0.4453125, 0.5078125, 0.3515625, -0.0703125, 0.1171875, -0.4765625, 0.4453125, 0.3359375, -0.5078125, 0.4375000, 0.2578125, -0.1015625, 0.2734375, -0.3046875, -0.4296875, 0.1640625, -0.3906250, 0.4531250, 0.3437500, 0.2187500, 0.2343750, -0.6718750, -0.5703125, -0.0312500, 0.2500000, -0.4375000, 0.2890625, 0.2031250, -0.4218750, 0.2500000, 0.5625000, -0.2812500, 0.4453125, 0.5078125, 0.3515625, -0.0703125, 0.1171875, -0.4765625, 0.4453125, 0.3359375, -0.5078125, 0.4375000, 0.2578125, -0.1015625, 0.2734375, -0.3046875, -0.4296875, 0.1640625, -0.3906250, 0.4531250, 0.3437500, 0.2187500, 0.2343750, -0.6718750, -0.5703125, -0.0312500, 0.2500000, -0.4375000, 0.2890625, 0.2031250, -0.4218750, 0.2500000, 0.5625000, -0.2812500, 0.4453125, 0.5078125, 0.3515625, -0.0703125, 0.1171875, -0.4765625, 0.4453125, 0.3359375, -0.5078125, 0.4375000, 0.2578125, -0.1015625, 0.2734375, -0.3046875, -0.4296875, 0.1640625, -0.3906250, 0.4531250, 0.3437500, 0.2187500, 0.2343750, -0.6718750, -0.5703125, -0.0312500, 0.2500000, -0.4375000, 0.2890625, 0.2031250, -0.4218750, 0.2500000, 0.5625000, -0.2812500, 0.4453125, 0.5078125, 0.3515625, -0.0703125, 0.1171875, -0.4765625, 0.4453125, 0.3359375, -0.5078125, 0.4375000, 0.2578125, -0.1015625, 0.2734375, -0.3046875, -0.4296875, 0.1640625, -0.3906250, 0.4531250, 0.3437500, 0.2187500, 0.2343750, -0.6718750, -0.5703125, -0.0312500, 0.2500000, -0.4375000, 0.2890625, 0.2031250, -0.4218750, 0.2500000, 0.5625000, -0.2812500, 0.4453125, 0.5078125, 0.3515625, -0.0703125, 0.1171875, -0.4765625, 0.4453125, 0.3359375, -0.5078125, 0.4375000, 0.2578125, -0.1015625, 0.2734375, -0.3046875, -0.4296875, 0.1640625, -0.3906250, 0.4531250, 0.3437500, 0.2187500, 0.2343750, -0.6718750, -0.5703125, -0.0312500, 0.2500000, -0.4375000, 0.2890625, 0.2031250, -0.4218750, 0.2500000, 0.5625000, -0.2812500, 0.4453125, 0.5078125, 0.3515625, -0.0703125, 0.1171875, -0.4765625, 0.4453125, 0.3359375, -0.5078125, 0.4375000, 0.2578125, -0.1015625, 0.2734375, -0.3046875, -0.4296875, 0.1640625, -0.3906250, 0.4531250, 0.3437500, 0.2187500, 0.2343750, -0.6718750, -0.5703125, -0.0312500, 0.2500000, -0.4375000, 0.2890625, 0.2031250, -0.4218750, 0.2500000, 0.5625000, -0.2812500, 0.4453125, 0.5078125, 0.3515625, -0.0703125, 0.1171875, -0.4765625, 0.4453125, 0.3359375, -0.5078125, 0.4375000, 0.2578125, -0.1015625, 0.2734375, -0.3046875, -0.4296875, 0.1640625, -0.3906250, 0.4531250, 0.3437500, 0.2187500, 0.2343750, -0.6718750, -0.5703125, -0.0312500, 0.2500000, -0.4375000, 0.2890625, 0.2031250, -0.4218750, 0.2500000, 0.5625000, -0.2812500, 0.4453125, 0.5078125, 0.3515625, -0.0703125, 0.1171875, -0.4765625, 0.4453125, 0.3359375, -0.5078125, 0.4375000, 0.2578125, -0.1015625, 0.2734375, -0.3046875, -0.4296875, 0.1640625, -0.3906250, 0.4531250, 0.3437500, 0.2187500, 0.2343750, -0.6718750, -0.5703125, -0.0312500, 0.2500000, -0.4375000, 0.2890625, 0.2031250, -0.4218750, 0.2500000, 0.5625000, -0.2812500, 0.4453125, 0.5078125, 0.3515625, -0.0703125, 0.1171875, -0.4765625, 0.4453125, 0.3359375, -0.5078125, 0.4375000, 0.2578125, -0.1015625, 0.2734375, -0.3046875, -0.4296875, 0.1640625, -0.3906250, 0.4531250, 0.3437500, 0.2187500, 0.2343750, -0.6718750, -0.5703125, -0.0312500, 0.2500000, -0.4375000, 0.2890625, 0.2031250, -0.4218750, 0.2500000, 0.5625000, -0.2812500, 0.4453125, 0.5078125, 0.3515625, -0.0703125, 0.1171875, -0.4765625, 0.4453125, 0.3359375, -0.5078125, 0.4375000, 0.2578125, -0.1015625, 0.2734375, -0.3046875, -0.4296875, 0.1640625, -0.3906250, 0.4531250, 0.3437500, 0.2187500, 0.2343750, -0.6718750, -0.5703125, -0.0312500, 0.2500000, -0.4375000, 0.2890625, 0.2031250, -0.4218750, 0.2500000, 0.5625000, -0.2812500, 0.4453125, 0.5078125, 0.3515625, -0.0703125, 0.1171875, -0.4765625, 0.4453125, 0.3359375, -0.5078125, 0.4375000, 0.2578125, -0.1015625, 0.2734375, -0.3046875, -0.4296875, 0.1640625, -0.3906250, 0.4531250, 0.3437500, 0.2187500, 0.2343750, -0.6718750, -0.5703125, -0.0312500, 0.2500000, -0.4375000, 0.2890625, 0.2031250, -0.4218750, 0.2500000, 0.5625000, -0.2812500, 0.4453125, 0.5078125, 0.3515625, -0.0703125, 0.1171875, -0.4765625, 0.4453125, 0.3359375, -0.5078125, 0.4375000, 0.2578125, -0.1015625, 0.2734375, -0.3046875, -0.4296875, 0.1640625, -0.3906250, 0.4531250, 0.3437500, 0.2187500, 0.2343750, -0.6718750, -0.5703125, -0.0312500, 0.2500000, -0.4375000, 0.2890625, 0.2031250, -0.4218750, 0.2500000, 0.5625000, -0.2812500, 0.4453125, 0.5078125, 0.3515625, -0.0703125, 0.1171875, -0.4765625, 0.4453125, 0.3359375, -0.5078125, 0.4375000, 0.2578125, -0.1015625, 0.2734375, -0.3046875, -0.4296875, 0.1640625, -0.3906250, 0.4531250, 0.3437500, 0.2187500, 0.2343750, -0.6718750, -0.5703125, -0.0312500, 0.2500000, -0.4375000, 0.2890625, 0.2031250, -0.4218750, 0.2500000, 0.5625000, -0.2812500, 0.4453125, 0.5078125, 0.3515625, -0.0703125, 0.1171875, -0.4765625, 0.4453125, 0.3359375, -0.5078125, 0.4375000, 0.2578125, -0.1015625, 0.2734375, -0.3046875, -0.4296875, 0.1640625, -0.3906250, 0.4531250, 0.3437500, 0.2187500, 0.2343750, -0.6718750, -0.5703125, -0.0312500, 0.2500000, -0.4375000, 0.2890625, 0.2031250, -0.4218750, 0.2500000, 0.5625000, -0.2812500, 0.4453125, 0.5078125, 0.3515625, -0.0703125, 0.1171875, -0.4765625, 0.4453125, 0.3359375, -0.5078125, 0.4375000, 0.2578125, -0.1015625, 0.2734375, -0.3046875, -0.4296875, 0.1640625, -0.3906250, 0.4531250, 0.3437500, 0.2187500, 0.2343750, -0.6718750, -0.5703125, -0.0312500, 0.2500000, -0.4375000, 0.2890625, 0.2031250, -0.4218750, 0.2500000, 0.5625000, -0.2812500, 0.4453125, 0.5078125, 0.3515625, -0.0703125, 0.1171875, -0.4765625, 0.4453125, 0.3359375, -0.5078125, 0.4375000, 0.2578125, -0.1015625, 0.2734375, -0.3046875, -0.4296875, 0.1640625, -0.3906250, 0.4531250, 0.3437500, 0.2187500, 0.2343750, -0.6718750, -0.5703125, -0.0312500, 0.2500000, -0.4375000, 0.2890625, 0.2031250, -0.4218750, 0.2500000, 0.5625000, -0.2812500, 0.4453125, 0.5078125, 0.3515625, -0.0703125, 0.1171875, -0.4765625, 0.4453125, 0.3359375, -0.5078125, 0.4375000, 0.2578125, -0.1015625, 0.2734375, -0.3046875, -0.4296875, 0.1640625, -0.3906250, 0.4531250, 0.3437500, 0.2187500, 0.2343750, -0.6718750, -0.5703125, -0.0312500, 0.2500000, -0.4375000, 0.2890625, 0.2031250, -0.4218750, 0.2500000, 0.5625000, -0.2812500, 0.4453125, 0.5078125, 0.3515625, -0.0703125, 0.1171875, -0.4765625, 0.4453125, 0.3359375, -0.5078125, 0.4375000, 0.2578125, -0.1015625, 0.2734375, -0.3046875, -0.4296875, 0.1640625, -0.3906250, 0.4531250, 0.3437500, 0.2187500, 0.2343750, -0.6718750, -0.5703125, -0.0312500, 0.2500000, -0.4375000, 0.2890625, 0.2031250, -0.4218750, 0.2500000, 0.5625000, -0.2812500, 0.4453125, 0.5078125, 0.3515625, -0.0703125, 0.1171875, -0.4765625, 0.4453125, 0.3359375, -0.5078125, 0.4375000, 0.2578125, -0.1015625, 0.2734375, -0.3046875, -0.4296875, 0.1640625, -0.3906250, 0.4531250, 0.3437500, 0.2187500, 0.2343750, -0.6718750, -0.5703125, -0.0312500, 0.2500000, -0.4375000, 0.2890625, 0.2031250, -0.4218750, 0.2500000, 0.5625000, -0.2812500, 0.4453125, 0.5078125, 0.3515625, -0.0703125, 0.1171875, -0.4765625, 0.4453125, 0.3359375, -0.5078125, 0.4375000, 0.2578125, -0.1015625, 0.2734375, -0.3046875, -0.4296875, 0.1640625, -0.3906250, 0.4531250, 0.3437500, 0.2187500, 0.2343750, -0.6718750, -0.5703125, -0.0312500, 0.2500000, -0.4375000, 0.2890625, 0.2031250, -0.4218750, 0.2500000, 0.5625000, -0.2812500, 0.4453125, 0.5078125, 0.3515625, -0.0703125, 0.1171875, -0.4765625, 0.4453125, 0.3359375, -0.5078125, 0.4375000, 0.2578125, -0.1015625, 0.2734375, -0.3046875, -0.4296875, 0.1640625, -0.3906250, 0.4531250, 0.3437500, 0.2187500, 0.2343750, -0.6718750, -0.5703125, -0.0312500, 0.2500000, -0.4375000, 0.2890625, 0.2031250, -0.4218750, 0.2500000, 0.5625000, -0.2812500, 0.4453125, 0.5078125, 0.3515625, -0.0703125, 0.1171875, -0.4765625, 0.4453125, 0.3359375, -0.5078125, 0.4375000, 0.2578125, -0.1015625, 0.2734375, -0.3046875, -0.4296875, 0.1640625, -0.3906250, 0.4531250, 0.3437500, 0.2187500, 0.2343750, -0.6718750, -0.5703125, -0.0312500, 0.2500000, -0.4375000, 0.2890625, 0.2031250, -0.4218750, 0.2500000, 0.5625000, -0.2812500, 0.4453125, 0.5078125, 0.3515625, -0.0703125, 0.1171875, -0.4765625, 0.4453125, 0.3359375, -0.5078125, 0.4375000, 0.2578125, -0.1015625, 0.2734375, -0.3046875, -0.4296875, 0.1640625, -0.3906250, 0.4531250, 0.3437500, 0.2187500, 0.2343750, -0.6718750, -0.5703125, -0.0312500, 0.2500000, -0.4375000, 0.2890625, 0.2031250, -0.4218750, 0.2500000, 0.5625000, -0.2812500, 0.4453125, 0.5078125, 0.3515625, -0.0703125, 0.1171875, -0.4765625, 0.4453125, 0.3359375, -0.5078125, 0.4375000, 0.2578125, -0.1015625, 0.2734375, -0.3046875, -0.4296875, 0.1640625, -0.3906250, 0.4531250, 0.3437500, 0.2187500, 0.2343750, -0.6718750, -0.5703125, -0.0312500, 0.2500000, -0.4375000, 0.2890625, 0.2031250, -0.4218750, 0.2500000, 0.5625000, -0.2812500, 0.4453125, 0.5078125, 0.3515625, -0.0703125, 0.1171875, -0.4765625, 0.4453125, 0.3359375, -0.5078125, 0.4375000, 0.2578125, -0.1015625, 0.2734375, -0.3046875, -0.4296875, 0.1640625, -0.3906250, 0.4531250, 0.3437500, 0.2187500, 0.2343750, -0.6718750, -0.5703125, -0.0312500, 0.2500000, -0.4375000, 0.2890625, 0.2031250, -0.4218750, 0.2500000, 0.5625000, -0.2812500, 0.4453125, 0.5078125, 0.3515625, -0.0703125, 0.1171875, -0.4765625, 0.4453125, 0.3359375, -0.5078125, 0.4375000, 0.2578125, -0.1015625, 0.2734375, -0.3046875, -0.4296875, 0.1640625, -0.3906250, 0.4531250, 0.3437500, 0.2187500, 0.2343750, -0.6718750, -0.5703125, -0.0312500, 0.2500000, -0.4375000, 0.2890625, 0.2031250, -0.4218750, 0.2500000, 0.5625000, -0.2812500, 0.4453125, 0.5078125, 0.3515625, -0.0703125, 0.1171875, -0.4765625, 0.4453125, 0.3359375, -0.5078125, 0.4375000, 0.2578125, -0.1015625, 0.2734375, -0.3046875, -0.4296875, 0.1640625, -0.3906250, 0.4531250, 0.3437500, 0.2187500, 0.2343750, -0.6718750, -0.5703125, -0.0312500, 0.2500000, -0.4375000, 0.2890625, 0.2031250, -0.4218750, 0.2500000, 0.5625000, -0.2812500, 0.4453125, 0.5078125, 0.3515625, -0.0703125, 0.1171875, -0.4765625, 0.4453125, 0.3359375, -0.5078125, 0.4375000, 0.2578125, -0.1015625, 0.2734375, -0.3046875, -0.4296875, 0.1640625, -0.3906250, 0.4531250, 0.3437500, 0.2187500, 0.2343750, -0.6718750, -0.5703125, -0.0312500, 0.2500000, -0.4375000, 0.2890625, 0.2031250, -0.4218750, 0.2500000, 0.5625000, -0.2812500, 0.4453125, 0.5078125, 0.3515625, -0.0703125, 0.1171875, -0.4765625, 0.4453125, 0.3359375, -0.5078125, 0.4375000, 0.2578125, -0.1015625, 0.2734375, -0.3046875, -0.4296875, 0.1640625, -0.3906250, 0.4531250, 0.3437500, 0.2187500, 0.2343750, -0.6718750, -0.5703125, -0.0312500, 0.2500000, -0.4375000, 0.2890625, 0.2031250, -0.4218750, 0.2500000, 0.5625000, -0.2812500, 0.4453125, 0.5078125, 0.3515625, -0.0703125}};

#endif
