//Numpy array shape [48, 1, 32]
//Min -0.201171875000
//Max 0.188476562500
//Number of zeros 0

#ifndef B19_H_
#define B19_H_

[[intel::fpga_memory]] static constexpr b19_t b19 = {{0.0058593750, -0.0615234375, -0.1162109375, -0.0019531250, 0.1884765625, 0.0234375000, -0.2011718750, -0.1416015625, -0.1787109375, 0.1650390625, 0.0224609375, -0.1699218750, 0.1464843750, -0.1298828125, 0.1660156250, 0.0351562500, -0.1298828125, 0.0595703125, 0.0898437500, -0.1552734375, 0.0468750000, -0.1337890625, 0.1513671875, 0.0068359375, -0.0312500000, -0.0117187500, -0.1259765625, -0.1640625000, -0.1044921875, -0.1289062500, -0.2001953125, 0.0156250000, 0.0058593750, -0.0615234375, -0.1162109375, -0.0019531250, 0.1884765625, 0.0234375000, -0.2011718750, -0.1416015625, -0.1787109375, 0.1650390625, 0.0224609375, -0.1699218750, 0.1464843750, -0.1298828125, 0.1660156250, 0.0351562500, -0.1298828125, 0.0595703125, 0.0898437500, -0.1552734375, 0.0468750000, -0.1337890625, 0.1513671875, 0.0068359375, -0.0312500000, -0.0117187500, -0.1259765625, -0.1640625000, -0.1044921875, -0.1289062500, -0.2001953125, 0.0156250000, 0.0058593750, -0.0615234375, -0.1162109375, -0.0019531250, 0.1884765625, 0.0234375000, -0.2011718750, -0.1416015625, -0.1787109375, 0.1650390625, 0.0224609375, -0.1699218750, 0.1464843750, -0.1298828125, 0.1660156250, 0.0351562500, -0.1298828125, 0.0595703125, 0.0898437500, -0.1552734375, 0.0468750000, -0.1337890625, 0.1513671875, 0.0068359375, -0.0312500000, -0.0117187500, -0.1259765625, -0.1640625000, -0.1044921875, -0.1289062500, -0.2001953125, 0.0156250000, 0.0058593750, -0.0615234375, -0.1162109375, -0.0019531250, 0.1884765625, 0.0234375000, -0.2011718750, -0.1416015625, -0.1787109375, 0.1650390625, 0.0224609375, -0.1699218750, 0.1464843750, -0.1298828125, 0.1660156250, 0.0351562500, -0.1298828125, 0.0595703125, 0.0898437500, -0.1552734375, 0.0468750000, -0.1337890625, 0.1513671875, 0.0068359375, -0.0312500000, -0.0117187500, -0.1259765625, -0.1640625000, -0.1044921875, -0.1289062500, -0.2001953125, 0.0156250000, 0.0058593750, -0.0615234375, -0.1162109375, -0.0019531250, 0.1884765625, 0.0234375000, -0.2011718750, -0.1416015625, -0.1787109375, 0.1650390625, 0.0224609375, -0.1699218750, 0.1464843750, -0.1298828125, 0.1660156250, 0.0351562500, -0.1298828125, 0.0595703125, 0.0898437500, -0.1552734375, 0.0468750000, -0.1337890625, 0.1513671875, 0.0068359375, -0.0312500000, -0.0117187500, -0.1259765625, -0.1640625000, -0.1044921875, -0.1289062500, -0.2001953125, 0.0156250000, 0.0058593750, -0.0615234375, -0.1162109375, -0.0019531250, 0.1884765625, 0.0234375000, -0.2011718750, -0.1416015625, -0.1787109375, 0.1650390625, 0.0224609375, -0.1699218750, 0.1464843750, -0.1298828125, 0.1660156250, 0.0351562500, -0.1298828125, 0.0595703125, 0.0898437500, -0.1552734375, 0.0468750000, -0.1337890625, 0.1513671875, 0.0068359375, -0.0312500000, -0.0117187500, -0.1259765625, -0.1640625000, -0.1044921875, -0.1289062500, -0.2001953125, 0.0156250000, 0.0058593750, -0.0615234375, -0.1162109375, -0.0019531250, 0.1884765625, 0.0234375000, -0.2011718750, -0.1416015625, -0.1787109375, 0.1650390625, 0.0224609375, -0.1699218750, 0.1464843750, -0.1298828125, 0.1660156250, 0.0351562500, -0.1298828125, 0.0595703125, 0.0898437500, -0.1552734375, 0.0468750000, -0.1337890625, 0.1513671875, 0.0068359375, -0.0312500000, -0.0117187500, -0.1259765625, -0.1640625000, -0.1044921875, -0.1289062500, -0.2001953125, 0.0156250000, 0.0058593750, -0.0615234375, -0.1162109375, -0.0019531250, 0.1884765625, 0.0234375000, -0.2011718750, -0.1416015625, -0.1787109375, 0.1650390625, 0.0224609375, -0.1699218750, 0.1464843750, -0.1298828125, 0.1660156250, 0.0351562500, -0.1298828125, 0.0595703125, 0.0898437500, -0.1552734375, 0.0468750000, -0.1337890625, 0.1513671875, 0.0068359375, -0.0312500000, -0.0117187500, -0.1259765625, -0.1640625000, -0.1044921875, -0.1289062500, -0.2001953125, 0.0156250000, 0.0058593750, -0.0615234375, -0.1162109375, -0.0019531250, 0.1884765625, 0.0234375000, -0.2011718750, -0.1416015625, -0.1787109375, 0.1650390625, 0.0224609375, -0.1699218750, 0.1464843750, -0.1298828125, 0.1660156250, 0.0351562500, -0.1298828125, 0.0595703125, 0.0898437500, -0.1552734375, 0.0468750000, -0.1337890625, 0.1513671875, 0.0068359375, -0.0312500000, -0.0117187500, -0.1259765625, -0.1640625000, -0.1044921875, -0.1289062500, -0.2001953125, 0.0156250000, 0.0058593750, -0.0615234375, -0.1162109375, -0.0019531250, 0.1884765625, 0.0234375000, -0.2011718750, -0.1416015625, -0.1787109375, 0.1650390625, 0.0224609375, -0.1699218750, 0.1464843750, -0.1298828125, 0.1660156250, 0.0351562500, -0.1298828125, 0.0595703125, 0.0898437500, -0.1552734375, 0.0468750000, -0.1337890625, 0.1513671875, 0.0068359375, -0.0312500000, -0.0117187500, -0.1259765625, -0.1640625000, -0.1044921875, -0.1289062500, -0.2001953125, 0.0156250000, 0.0058593750, -0.0615234375, -0.1162109375, -0.0019531250, 0.1884765625, 0.0234375000, -0.2011718750, -0.1416015625, -0.1787109375, 0.1650390625, 0.0224609375, -0.1699218750, 0.1464843750, -0.1298828125, 0.1660156250, 0.0351562500, -0.1298828125, 0.0595703125, 0.0898437500, -0.1552734375, 0.0468750000, -0.1337890625, 0.1513671875, 0.0068359375, -0.0312500000, -0.0117187500, -0.1259765625, -0.1640625000, -0.1044921875, -0.1289062500, -0.2001953125, 0.0156250000, 0.0058593750, -0.0615234375, -0.1162109375, -0.0019531250, 0.1884765625, 0.0234375000, -0.2011718750, -0.1416015625, -0.1787109375, 0.1650390625, 0.0224609375, -0.1699218750, 0.1464843750, -0.1298828125, 0.1660156250, 0.0351562500, -0.1298828125, 0.0595703125, 0.0898437500, -0.1552734375, 0.0468750000, -0.1337890625, 0.1513671875, 0.0068359375, -0.0312500000, -0.0117187500, -0.1259765625, -0.1640625000, -0.1044921875, -0.1289062500, -0.2001953125, 0.0156250000, 0.0058593750, -0.0615234375, -0.1162109375, -0.0019531250, 0.1884765625, 0.0234375000, -0.2011718750, -0.1416015625, -0.1787109375, 0.1650390625, 0.0224609375, -0.1699218750, 0.1464843750, -0.1298828125, 0.1660156250, 0.0351562500, -0.1298828125, 0.0595703125, 0.0898437500, -0.1552734375, 0.0468750000, -0.1337890625, 0.1513671875, 0.0068359375, -0.0312500000, -0.0117187500, -0.1259765625, -0.1640625000, -0.1044921875, -0.1289062500, -0.2001953125, 0.0156250000, 0.0058593750, -0.0615234375, -0.1162109375, -0.0019531250, 0.1884765625, 0.0234375000, -0.2011718750, -0.1416015625, -0.1787109375, 0.1650390625, 0.0224609375, -0.1699218750, 0.1464843750, -0.1298828125, 0.1660156250, 0.0351562500, -0.1298828125, 0.0595703125, 0.0898437500, -0.1552734375, 0.0468750000, -0.1337890625, 0.1513671875, 0.0068359375, -0.0312500000, -0.0117187500, -0.1259765625, -0.1640625000, -0.1044921875, -0.1289062500, -0.2001953125, 0.0156250000, 0.0058593750, -0.0615234375, -0.1162109375, -0.0019531250, 0.1884765625, 0.0234375000, -0.2011718750, -0.1416015625, -0.1787109375, 0.1650390625, 0.0224609375, -0.1699218750, 0.1464843750, -0.1298828125, 0.1660156250, 0.0351562500, -0.1298828125, 0.0595703125, 0.0898437500, -0.1552734375, 0.0468750000, -0.1337890625, 0.1513671875, 0.0068359375, -0.0312500000, -0.0117187500, -0.1259765625, -0.1640625000, -0.1044921875, -0.1289062500, -0.2001953125, 0.0156250000, 0.0058593750, -0.0615234375, -0.1162109375, -0.0019531250, 0.1884765625, 0.0234375000, -0.2011718750, -0.1416015625, -0.1787109375, 0.1650390625, 0.0224609375, -0.1699218750, 0.1464843750, -0.1298828125, 0.1660156250, 0.0351562500, -0.1298828125, 0.0595703125, 0.0898437500, -0.1552734375, 0.0468750000, -0.1337890625, 0.1513671875, 0.0068359375, -0.0312500000, -0.0117187500, -0.1259765625, -0.1640625000, -0.1044921875, -0.1289062500, -0.2001953125, 0.0156250000, 0.0058593750, -0.0615234375, -0.1162109375, -0.0019531250, 0.1884765625, 0.0234375000, -0.2011718750, -0.1416015625, -0.1787109375, 0.1650390625, 0.0224609375, -0.1699218750, 0.1464843750, -0.1298828125, 0.1660156250, 0.0351562500, -0.1298828125, 0.0595703125, 0.0898437500, -0.1552734375, 0.0468750000, -0.1337890625, 0.1513671875, 0.0068359375, -0.0312500000, -0.0117187500, -0.1259765625, -0.1640625000, -0.1044921875, -0.1289062500, -0.2001953125, 0.0156250000, 0.0058593750, -0.0615234375, -0.1162109375, -0.0019531250, 0.1884765625, 0.0234375000, -0.2011718750, -0.1416015625, -0.1787109375, 0.1650390625, 0.0224609375, -0.1699218750, 0.1464843750, -0.1298828125, 0.1660156250, 0.0351562500, -0.1298828125, 0.0595703125, 0.0898437500, -0.1552734375, 0.0468750000, -0.1337890625, 0.1513671875, 0.0068359375, -0.0312500000, -0.0117187500, -0.1259765625, -0.1640625000, -0.1044921875, -0.1289062500, -0.2001953125, 0.0156250000, 0.0058593750, -0.0615234375, -0.1162109375, -0.0019531250, 0.1884765625, 0.0234375000, -0.2011718750, -0.1416015625, -0.1787109375, 0.1650390625, 0.0224609375, -0.1699218750, 0.1464843750, -0.1298828125, 0.1660156250, 0.0351562500, -0.1298828125, 0.0595703125, 0.0898437500, -0.1552734375, 0.0468750000, -0.1337890625, 0.1513671875, 0.0068359375, -0.0312500000, -0.0117187500, -0.1259765625, -0.1640625000, -0.1044921875, -0.1289062500, -0.2001953125, 0.0156250000, 0.0058593750, -0.0615234375, -0.1162109375, -0.0019531250, 0.1884765625, 0.0234375000, -0.2011718750, -0.1416015625, -0.1787109375, 0.1650390625, 0.0224609375, -0.1699218750, 0.1464843750, -0.1298828125, 0.1660156250, 0.0351562500, -0.1298828125, 0.0595703125, 0.0898437500, -0.1552734375, 0.0468750000, -0.1337890625, 0.1513671875, 0.0068359375, -0.0312500000, -0.0117187500, -0.1259765625, -0.1640625000, -0.1044921875, -0.1289062500, -0.2001953125, 0.0156250000, 0.0058593750, -0.0615234375, -0.1162109375, -0.0019531250, 0.1884765625, 0.0234375000, -0.2011718750, -0.1416015625, -0.1787109375, 0.1650390625, 0.0224609375, -0.1699218750, 0.1464843750, -0.1298828125, 0.1660156250, 0.0351562500, -0.1298828125, 0.0595703125, 0.0898437500, -0.1552734375, 0.0468750000, -0.1337890625, 0.1513671875, 0.0068359375, -0.0312500000, -0.0117187500, -0.1259765625, -0.1640625000, -0.1044921875, -0.1289062500, -0.2001953125, 0.0156250000, 0.0058593750, -0.0615234375, -0.1162109375, -0.0019531250, 0.1884765625, 0.0234375000, -0.2011718750, -0.1416015625, -0.1787109375, 0.1650390625, 0.0224609375, -0.1699218750, 0.1464843750, -0.1298828125, 0.1660156250, 0.0351562500, -0.1298828125, 0.0595703125, 0.0898437500, -0.1552734375, 0.0468750000, -0.1337890625, 0.1513671875, 0.0068359375, -0.0312500000, -0.0117187500, -0.1259765625, -0.1640625000, -0.1044921875, -0.1289062500, -0.2001953125, 0.0156250000, 0.0058593750, -0.0615234375, -0.1162109375, -0.0019531250, 0.1884765625, 0.0234375000, -0.2011718750, -0.1416015625, -0.1787109375, 0.1650390625, 0.0224609375, -0.1699218750, 0.1464843750, -0.1298828125, 0.1660156250, 0.0351562500, -0.1298828125, 0.0595703125, 0.0898437500, -0.1552734375, 0.0468750000, -0.1337890625, 0.1513671875, 0.0068359375, -0.0312500000, -0.0117187500, -0.1259765625, -0.1640625000, -0.1044921875, -0.1289062500, -0.2001953125, 0.0156250000, 0.0058593750, -0.0615234375, -0.1162109375, -0.0019531250, 0.1884765625, 0.0234375000, -0.2011718750, -0.1416015625, -0.1787109375, 0.1650390625, 0.0224609375, -0.1699218750, 0.1464843750, -0.1298828125, 0.1660156250, 0.0351562500, -0.1298828125, 0.0595703125, 0.0898437500, -0.1552734375, 0.0468750000, -0.1337890625, 0.1513671875, 0.0068359375, -0.0312500000, -0.0117187500, -0.1259765625, -0.1640625000, -0.1044921875, -0.1289062500, -0.2001953125, 0.0156250000, 0.0058593750, -0.0615234375, -0.1162109375, -0.0019531250, 0.1884765625, 0.0234375000, -0.2011718750, -0.1416015625, -0.1787109375, 0.1650390625, 0.0224609375, -0.1699218750, 0.1464843750, -0.1298828125, 0.1660156250, 0.0351562500, -0.1298828125, 0.0595703125, 0.0898437500, -0.1552734375, 0.0468750000, -0.1337890625, 0.1513671875, 0.0068359375, -0.0312500000, -0.0117187500, -0.1259765625, -0.1640625000, -0.1044921875, -0.1289062500, -0.2001953125, 0.0156250000, 0.0058593750, -0.0615234375, -0.1162109375, -0.0019531250, 0.1884765625, 0.0234375000, -0.2011718750, -0.1416015625, -0.1787109375, 0.1650390625, 0.0224609375, -0.1699218750, 0.1464843750, -0.1298828125, 0.1660156250, 0.0351562500, -0.1298828125, 0.0595703125, 0.0898437500, -0.1552734375, 0.0468750000, -0.1337890625, 0.1513671875, 0.0068359375, -0.0312500000, -0.0117187500, -0.1259765625, -0.1640625000, -0.1044921875, -0.1289062500, -0.2001953125, 0.0156250000, 0.0058593750, -0.0615234375, -0.1162109375, -0.0019531250, 0.1884765625, 0.0234375000, -0.2011718750, -0.1416015625, -0.1787109375, 0.1650390625, 0.0224609375, -0.1699218750, 0.1464843750, -0.1298828125, 0.1660156250, 0.0351562500, -0.1298828125, 0.0595703125, 0.0898437500, -0.1552734375, 0.0468750000, -0.1337890625, 0.1513671875, 0.0068359375, -0.0312500000, -0.0117187500, -0.1259765625, -0.1640625000, -0.1044921875, -0.1289062500, -0.2001953125, 0.0156250000, 0.0058593750, -0.0615234375, -0.1162109375, -0.0019531250, 0.1884765625, 0.0234375000, -0.2011718750, -0.1416015625, -0.1787109375, 0.1650390625, 0.0224609375, -0.1699218750, 0.1464843750, -0.1298828125, 0.1660156250, 0.0351562500, -0.1298828125, 0.0595703125, 0.0898437500, -0.1552734375, 0.0468750000, -0.1337890625, 0.1513671875, 0.0068359375, -0.0312500000, -0.0117187500, -0.1259765625, -0.1640625000, -0.1044921875, -0.1289062500, -0.2001953125, 0.0156250000, 0.0058593750, -0.0615234375, -0.1162109375, -0.0019531250, 0.1884765625, 0.0234375000, -0.2011718750, -0.1416015625, -0.1787109375, 0.1650390625, 0.0224609375, -0.1699218750, 0.1464843750, -0.1298828125, 0.1660156250, 0.0351562500, -0.1298828125, 0.0595703125, 0.0898437500, -0.1552734375, 0.0468750000, -0.1337890625, 0.1513671875, 0.0068359375, -0.0312500000, -0.0117187500, -0.1259765625, -0.1640625000, -0.1044921875, -0.1289062500, -0.2001953125, 0.0156250000, 0.0058593750, -0.0615234375, -0.1162109375, -0.0019531250, 0.1884765625, 0.0234375000, -0.2011718750, -0.1416015625, -0.1787109375, 0.1650390625, 0.0224609375, -0.1699218750, 0.1464843750, -0.1298828125, 0.1660156250, 0.0351562500, -0.1298828125, 0.0595703125, 0.0898437500, -0.1552734375, 0.0468750000, -0.1337890625, 0.1513671875, 0.0068359375, -0.0312500000, -0.0117187500, -0.1259765625, -0.1640625000, -0.1044921875, -0.1289062500, -0.2001953125, 0.0156250000, 0.0058593750, -0.0615234375, -0.1162109375, -0.0019531250, 0.1884765625, 0.0234375000, -0.2011718750, -0.1416015625, -0.1787109375, 0.1650390625, 0.0224609375, -0.1699218750, 0.1464843750, -0.1298828125, 0.1660156250, 0.0351562500, -0.1298828125, 0.0595703125, 0.0898437500, -0.1552734375, 0.0468750000, -0.1337890625, 0.1513671875, 0.0068359375, -0.0312500000, -0.0117187500, -0.1259765625, -0.1640625000, -0.1044921875, -0.1289062500, -0.2001953125, 0.0156250000, 0.0058593750, -0.0615234375, -0.1162109375, -0.0019531250, 0.1884765625, 0.0234375000, -0.2011718750, -0.1416015625, -0.1787109375, 0.1650390625, 0.0224609375, -0.1699218750, 0.1464843750, -0.1298828125, 0.1660156250, 0.0351562500, -0.1298828125, 0.0595703125, 0.0898437500, -0.1552734375, 0.0468750000, -0.1337890625, 0.1513671875, 0.0068359375, -0.0312500000, -0.0117187500, -0.1259765625, -0.1640625000, -0.1044921875, -0.1289062500, -0.2001953125, 0.0156250000, 0.0058593750, -0.0615234375, -0.1162109375, -0.0019531250, 0.1884765625, 0.0234375000, -0.2011718750, -0.1416015625, -0.1787109375, 0.1650390625, 0.0224609375, -0.1699218750, 0.1464843750, -0.1298828125, 0.1660156250, 0.0351562500, -0.1298828125, 0.0595703125, 0.0898437500, -0.1552734375, 0.0468750000, -0.1337890625, 0.1513671875, 0.0068359375, -0.0312500000, -0.0117187500, -0.1259765625, -0.1640625000, -0.1044921875, -0.1289062500, -0.2001953125, 0.0156250000, 0.0058593750, -0.0615234375, -0.1162109375, -0.0019531250, 0.1884765625, 0.0234375000, -0.2011718750, -0.1416015625, -0.1787109375, 0.1650390625, 0.0224609375, -0.1699218750, 0.1464843750, -0.1298828125, 0.1660156250, 0.0351562500, -0.1298828125, 0.0595703125, 0.0898437500, -0.1552734375, 0.0468750000, -0.1337890625, 0.1513671875, 0.0068359375, -0.0312500000, -0.0117187500, -0.1259765625, -0.1640625000, -0.1044921875, -0.1289062500, -0.2001953125, 0.0156250000, 0.0058593750, -0.0615234375, -0.1162109375, -0.0019531250, 0.1884765625, 0.0234375000, -0.2011718750, -0.1416015625, -0.1787109375, 0.1650390625, 0.0224609375, -0.1699218750, 0.1464843750, -0.1298828125, 0.1660156250, 0.0351562500, -0.1298828125, 0.0595703125, 0.0898437500, -0.1552734375, 0.0468750000, -0.1337890625, 0.1513671875, 0.0068359375, -0.0312500000, -0.0117187500, -0.1259765625, -0.1640625000, -0.1044921875, -0.1289062500, -0.2001953125, 0.0156250000, 0.0058593750, -0.0615234375, -0.1162109375, -0.0019531250, 0.1884765625, 0.0234375000, -0.2011718750, -0.1416015625, -0.1787109375, 0.1650390625, 0.0224609375, -0.1699218750, 0.1464843750, -0.1298828125, 0.1660156250, 0.0351562500, -0.1298828125, 0.0595703125, 0.0898437500, -0.1552734375, 0.0468750000, -0.1337890625, 0.1513671875, 0.0068359375, -0.0312500000, -0.0117187500, -0.1259765625, -0.1640625000, -0.1044921875, -0.1289062500, -0.2001953125, 0.0156250000, 0.0058593750, -0.0615234375, -0.1162109375, -0.0019531250, 0.1884765625, 0.0234375000, -0.2011718750, -0.1416015625, -0.1787109375, 0.1650390625, 0.0224609375, -0.1699218750, 0.1464843750, -0.1298828125, 0.1660156250, 0.0351562500, -0.1298828125, 0.0595703125, 0.0898437500, -0.1552734375, 0.0468750000, -0.1337890625, 0.1513671875, 0.0068359375, -0.0312500000, -0.0117187500, -0.1259765625, -0.1640625000, -0.1044921875, -0.1289062500, -0.2001953125, 0.0156250000, 0.0058593750, -0.0615234375, -0.1162109375, -0.0019531250, 0.1884765625, 0.0234375000, -0.2011718750, -0.1416015625, -0.1787109375, 0.1650390625, 0.0224609375, -0.1699218750, 0.1464843750, -0.1298828125, 0.1660156250, 0.0351562500, -0.1298828125, 0.0595703125, 0.0898437500, -0.1552734375, 0.0468750000, -0.1337890625, 0.1513671875, 0.0068359375, -0.0312500000, -0.0117187500, -0.1259765625, -0.1640625000, -0.1044921875, -0.1289062500, -0.2001953125, 0.0156250000, 0.0058593750, -0.0615234375, -0.1162109375, -0.0019531250, 0.1884765625, 0.0234375000, -0.2011718750, -0.1416015625, -0.1787109375, 0.1650390625, 0.0224609375, -0.1699218750, 0.1464843750, -0.1298828125, 0.1660156250, 0.0351562500, -0.1298828125, 0.0595703125, 0.0898437500, -0.1552734375, 0.0468750000, -0.1337890625, 0.1513671875, 0.0068359375, -0.0312500000, -0.0117187500, -0.1259765625, -0.1640625000, -0.1044921875, -0.1289062500, -0.2001953125, 0.0156250000, 0.0058593750, -0.0615234375, -0.1162109375, -0.0019531250, 0.1884765625, 0.0234375000, -0.2011718750, -0.1416015625, -0.1787109375, 0.1650390625, 0.0224609375, -0.1699218750, 0.1464843750, -0.1298828125, 0.1660156250, 0.0351562500, -0.1298828125, 0.0595703125, 0.0898437500, -0.1552734375, 0.0468750000, -0.1337890625, 0.1513671875, 0.0068359375, -0.0312500000, -0.0117187500, -0.1259765625, -0.1640625000, -0.1044921875, -0.1289062500, -0.2001953125, 0.0156250000, 0.0058593750, -0.0615234375, -0.1162109375, -0.0019531250, 0.1884765625, 0.0234375000, -0.2011718750, -0.1416015625, -0.1787109375, 0.1650390625, 0.0224609375, -0.1699218750, 0.1464843750, -0.1298828125, 0.1660156250, 0.0351562500, -0.1298828125, 0.0595703125, 0.0898437500, -0.1552734375, 0.0468750000, -0.1337890625, 0.1513671875, 0.0068359375, -0.0312500000, -0.0117187500, -0.1259765625, -0.1640625000, -0.1044921875, -0.1289062500, -0.2001953125, 0.0156250000, 0.0058593750, -0.0615234375, -0.1162109375, -0.0019531250, 0.1884765625, 0.0234375000, -0.2011718750, -0.1416015625, -0.1787109375, 0.1650390625, 0.0224609375, -0.1699218750, 0.1464843750, -0.1298828125, 0.1660156250, 0.0351562500, -0.1298828125, 0.0595703125, 0.0898437500, -0.1552734375, 0.0468750000, -0.1337890625, 0.1513671875, 0.0068359375, -0.0312500000, -0.0117187500, -0.1259765625, -0.1640625000, -0.1044921875, -0.1289062500, -0.2001953125, 0.0156250000, 0.0058593750, -0.0615234375, -0.1162109375, -0.0019531250, 0.1884765625, 0.0234375000, -0.2011718750, -0.1416015625, -0.1787109375, 0.1650390625, 0.0224609375, -0.1699218750, 0.1464843750, -0.1298828125, 0.1660156250, 0.0351562500, -0.1298828125, 0.0595703125, 0.0898437500, -0.1552734375, 0.0468750000, -0.1337890625, 0.1513671875, 0.0068359375, -0.0312500000, -0.0117187500, -0.1259765625, -0.1640625000, -0.1044921875, -0.1289062500, -0.2001953125, 0.0156250000, 0.0058593750, -0.0615234375, -0.1162109375, -0.0019531250, 0.1884765625, 0.0234375000, -0.2011718750, -0.1416015625, -0.1787109375, 0.1650390625, 0.0224609375, -0.1699218750, 0.1464843750, -0.1298828125, 0.1660156250, 0.0351562500, -0.1298828125, 0.0595703125, 0.0898437500, -0.1552734375, 0.0468750000, -0.1337890625, 0.1513671875, 0.0068359375, -0.0312500000, -0.0117187500, -0.1259765625, -0.1640625000, -0.1044921875, -0.1289062500, -0.2001953125, 0.0156250000, 0.0058593750, -0.0615234375, -0.1162109375, -0.0019531250, 0.1884765625, 0.0234375000, -0.2011718750, -0.1416015625, -0.1787109375, 0.1650390625, 0.0224609375, -0.1699218750, 0.1464843750, -0.1298828125, 0.1660156250, 0.0351562500, -0.1298828125, 0.0595703125, 0.0898437500, -0.1552734375, 0.0468750000, -0.1337890625, 0.1513671875, 0.0068359375, -0.0312500000, -0.0117187500, -0.1259765625, -0.1640625000, -0.1044921875, -0.1289062500, -0.2001953125, 0.0156250000, 0.0058593750, -0.0615234375, -0.1162109375, -0.0019531250, 0.1884765625, 0.0234375000, -0.2011718750, -0.1416015625, -0.1787109375, 0.1650390625, 0.0224609375, -0.1699218750, 0.1464843750, -0.1298828125, 0.1660156250, 0.0351562500, -0.1298828125, 0.0595703125, 0.0898437500, -0.1552734375, 0.0468750000, -0.1337890625, 0.1513671875, 0.0068359375, -0.0312500000, -0.0117187500, -0.1259765625, -0.1640625000, -0.1044921875, -0.1289062500, -0.2001953125, 0.0156250000, 0.0058593750, -0.0615234375, -0.1162109375, -0.0019531250, 0.1884765625, 0.0234375000, -0.2011718750, -0.1416015625, -0.1787109375, 0.1650390625, 0.0224609375, -0.1699218750, 0.1464843750, -0.1298828125, 0.1660156250, 0.0351562500, -0.1298828125, 0.0595703125, 0.0898437500, -0.1552734375, 0.0468750000, -0.1337890625, 0.1513671875, 0.0068359375, -0.0312500000, -0.0117187500, -0.1259765625, -0.1640625000, -0.1044921875, -0.1289062500, -0.2001953125, 0.0156250000, 0.0058593750, -0.0615234375, -0.1162109375, -0.0019531250, 0.1884765625, 0.0234375000, -0.2011718750, -0.1416015625, -0.1787109375, 0.1650390625, 0.0224609375, -0.1699218750, 0.1464843750, -0.1298828125, 0.1660156250, 0.0351562500, -0.1298828125, 0.0595703125, 0.0898437500, -0.1552734375, 0.0468750000, -0.1337890625, 0.1513671875, 0.0068359375, -0.0312500000, -0.0117187500, -0.1259765625, -0.1640625000, -0.1044921875, -0.1289062500, -0.2001953125, 0.0156250000}};

#endif
