//Numpy array shape [48, 1, 32]
//Min -0.406250000000
//Max 0.203125000000
//Number of zeros 0

#ifndef B44_H_
#define B44_H_

[[intel::fpga_memory]] static constexpr b44_t b44 = {{-0.250000, -0.296875, -0.406250, 0.156250, 0.187500, -0.375000, -0.281250, 0.031250, 0.171875, -0.265625, 0.125000, 0.078125, -0.187500, -0.187500, -0.312500, 0.156250, -0.140625, -0.234375, -0.031250, 0.031250, 0.140625, -0.390625, 0.187500, 0.031250, -0.328125, 0.203125, -0.015625, 0.062500, -0.109375, 0.156250, -0.296875, -0.218750, -0.250000, -0.296875, -0.406250, 0.156250, 0.187500, -0.375000, -0.281250, 0.031250, 0.171875, -0.265625, 0.125000, 0.078125, -0.187500, -0.187500, -0.312500, 0.156250, -0.140625, -0.234375, -0.031250, 0.031250, 0.140625, -0.390625, 0.187500, 0.031250, -0.328125, 0.203125, -0.015625, 0.062500, -0.109375, 0.156250, -0.296875, -0.218750, -0.250000, -0.296875, -0.406250, 0.156250, 0.187500, -0.375000, -0.281250, 0.031250, 0.171875, -0.265625, 0.125000, 0.078125, -0.187500, -0.187500, -0.312500, 0.156250, -0.140625, -0.234375, -0.031250, 0.031250, 0.140625, -0.390625, 0.187500, 0.031250, -0.328125, 0.203125, -0.015625, 0.062500, -0.109375, 0.156250, -0.296875, -0.218750, -0.250000, -0.296875, -0.406250, 0.156250, 0.187500, -0.375000, -0.281250, 0.031250, 0.171875, -0.265625, 0.125000, 0.078125, -0.187500, -0.187500, -0.312500, 0.156250, -0.140625, -0.234375, -0.031250, 0.031250, 0.140625, -0.390625, 0.187500, 0.031250, -0.328125, 0.203125, -0.015625, 0.062500, -0.109375, 0.156250, -0.296875, -0.218750, -0.250000, -0.296875, -0.406250, 0.156250, 0.187500, -0.375000, -0.281250, 0.031250, 0.171875, -0.265625, 0.125000, 0.078125, -0.187500, -0.187500, -0.312500, 0.156250, -0.140625, -0.234375, -0.031250, 0.031250, 0.140625, -0.390625, 0.187500, 0.031250, -0.328125, 0.203125, -0.015625, 0.062500, -0.109375, 0.156250, -0.296875, -0.218750, -0.250000, -0.296875, -0.406250, 0.156250, 0.187500, -0.375000, -0.281250, 0.031250, 0.171875, -0.265625, 0.125000, 0.078125, -0.187500, -0.187500, -0.312500, 0.156250, -0.140625, -0.234375, -0.031250, 0.031250, 0.140625, -0.390625, 0.187500, 0.031250, -0.328125, 0.203125, -0.015625, 0.062500, -0.109375, 0.156250, -0.296875, -0.218750, -0.250000, -0.296875, -0.406250, 0.156250, 0.187500, -0.375000, -0.281250, 0.031250, 0.171875, -0.265625, 0.125000, 0.078125, -0.187500, -0.187500, -0.312500, 0.156250, -0.140625, -0.234375, -0.031250, 0.031250, 0.140625, -0.390625, 0.187500, 0.031250, -0.328125, 0.203125, -0.015625, 0.062500, -0.109375, 0.156250, -0.296875, -0.218750, -0.250000, -0.296875, -0.406250, 0.156250, 0.187500, -0.375000, -0.281250, 0.031250, 0.171875, -0.265625, 0.125000, 0.078125, -0.187500, -0.187500, -0.312500, 0.156250, -0.140625, -0.234375, -0.031250, 0.031250, 0.140625, -0.390625, 0.187500, 0.031250, -0.328125, 0.203125, -0.015625, 0.062500, -0.109375, 0.156250, -0.296875, -0.218750, -0.250000, -0.296875, -0.406250, 0.156250, 0.187500, -0.375000, -0.281250, 0.031250, 0.171875, -0.265625, 0.125000, 0.078125, -0.187500, -0.187500, -0.312500, 0.156250, -0.140625, -0.234375, -0.031250, 0.031250, 0.140625, -0.390625, 0.187500, 0.031250, -0.328125, 0.203125, -0.015625, 0.062500, -0.109375, 0.156250, -0.296875, -0.218750, -0.250000, -0.296875, -0.406250, 0.156250, 0.187500, -0.375000, -0.281250, 0.031250, 0.171875, -0.265625, 0.125000, 0.078125, -0.187500, -0.187500, -0.312500, 0.156250, -0.140625, -0.234375, -0.031250, 0.031250, 0.140625, -0.390625, 0.187500, 0.031250, -0.328125, 0.203125, -0.015625, 0.062500, -0.109375, 0.156250, -0.296875, -0.218750, -0.250000, -0.296875, -0.406250, 0.156250, 0.187500, -0.375000, -0.281250, 0.031250, 0.171875, -0.265625, 0.125000, 0.078125, -0.187500, -0.187500, -0.312500, 0.156250, -0.140625, -0.234375, -0.031250, 0.031250, 0.140625, -0.390625, 0.187500, 0.031250, -0.328125, 0.203125, -0.015625, 0.062500, -0.109375, 0.156250, -0.296875, -0.218750, -0.250000, -0.296875, -0.406250, 0.156250, 0.187500, -0.375000, -0.281250, 0.031250, 0.171875, -0.265625, 0.125000, 0.078125, -0.187500, -0.187500, -0.312500, 0.156250, -0.140625, -0.234375, -0.031250, 0.031250, 0.140625, -0.390625, 0.187500, 0.031250, -0.328125, 0.203125, -0.015625, 0.062500, -0.109375, 0.156250, -0.296875, -0.218750, -0.250000, -0.296875, -0.406250, 0.156250, 0.187500, -0.375000, -0.281250, 0.031250, 0.171875, -0.265625, 0.125000, 0.078125, -0.187500, -0.187500, -0.312500, 0.156250, -0.140625, -0.234375, -0.031250, 0.031250, 0.140625, -0.390625, 0.187500, 0.031250, -0.328125, 0.203125, -0.015625, 0.062500, -0.109375, 0.156250, -0.296875, -0.218750, -0.250000, -0.296875, -0.406250, 0.156250, 0.187500, -0.375000, -0.281250, 0.031250, 0.171875, -0.265625, 0.125000, 0.078125, -0.187500, -0.187500, -0.312500, 0.156250, -0.140625, -0.234375, -0.031250, 0.031250, 0.140625, -0.390625, 0.187500, 0.031250, -0.328125, 0.203125, -0.015625, 0.062500, -0.109375, 0.156250, -0.296875, -0.218750, -0.250000, -0.296875, -0.406250, 0.156250, 0.187500, -0.375000, -0.281250, 0.031250, 0.171875, -0.265625, 0.125000, 0.078125, -0.187500, -0.187500, -0.312500, 0.156250, -0.140625, -0.234375, -0.031250, 0.031250, 0.140625, -0.390625, 0.187500, 0.031250, -0.328125, 0.203125, -0.015625, 0.062500, -0.109375, 0.156250, -0.296875, -0.218750, -0.250000, -0.296875, -0.406250, 0.156250, 0.187500, -0.375000, -0.281250, 0.031250, 0.171875, -0.265625, 0.125000, 0.078125, -0.187500, -0.187500, -0.312500, 0.156250, -0.140625, -0.234375, -0.031250, 0.031250, 0.140625, -0.390625, 0.187500, 0.031250, -0.328125, 0.203125, -0.015625, 0.062500, -0.109375, 0.156250, -0.296875, -0.218750, -0.250000, -0.296875, -0.406250, 0.156250, 0.187500, -0.375000, -0.281250, 0.031250, 0.171875, -0.265625, 0.125000, 0.078125, -0.187500, -0.187500, -0.312500, 0.156250, -0.140625, -0.234375, -0.031250, 0.031250, 0.140625, -0.390625, 0.187500, 0.031250, -0.328125, 0.203125, -0.015625, 0.062500, -0.109375, 0.156250, -0.296875, -0.218750, -0.250000, -0.296875, -0.406250, 0.156250, 0.187500, -0.375000, -0.281250, 0.031250, 0.171875, -0.265625, 0.125000, 0.078125, -0.187500, -0.187500, -0.312500, 0.156250, -0.140625, -0.234375, -0.031250, 0.031250, 0.140625, -0.390625, 0.187500, 0.031250, -0.328125, 0.203125, -0.015625, 0.062500, -0.109375, 0.156250, -0.296875, -0.218750, -0.250000, -0.296875, -0.406250, 0.156250, 0.187500, -0.375000, -0.281250, 0.031250, 0.171875, -0.265625, 0.125000, 0.078125, -0.187500, -0.187500, -0.312500, 0.156250, -0.140625, -0.234375, -0.031250, 0.031250, 0.140625, -0.390625, 0.187500, 0.031250, -0.328125, 0.203125, -0.015625, 0.062500, -0.109375, 0.156250, -0.296875, -0.218750, -0.250000, -0.296875, -0.406250, 0.156250, 0.187500, -0.375000, -0.281250, 0.031250, 0.171875, -0.265625, 0.125000, 0.078125, -0.187500, -0.187500, -0.312500, 0.156250, -0.140625, -0.234375, -0.031250, 0.031250, 0.140625, -0.390625, 0.187500, 0.031250, -0.328125, 0.203125, -0.015625, 0.062500, -0.109375, 0.156250, -0.296875, -0.218750, -0.250000, -0.296875, -0.406250, 0.156250, 0.187500, -0.375000, -0.281250, 0.031250, 0.171875, -0.265625, 0.125000, 0.078125, -0.187500, -0.187500, -0.312500, 0.156250, -0.140625, -0.234375, -0.031250, 0.031250, 0.140625, -0.390625, 0.187500, 0.031250, -0.328125, 0.203125, -0.015625, 0.062500, -0.109375, 0.156250, -0.296875, -0.218750, -0.250000, -0.296875, -0.406250, 0.156250, 0.187500, -0.375000, -0.281250, 0.031250, 0.171875, -0.265625, 0.125000, 0.078125, -0.187500, -0.187500, -0.312500, 0.156250, -0.140625, -0.234375, -0.031250, 0.031250, 0.140625, -0.390625, 0.187500, 0.031250, -0.328125, 0.203125, -0.015625, 0.062500, -0.109375, 0.156250, -0.296875, -0.218750, -0.250000, -0.296875, -0.406250, 0.156250, 0.187500, -0.375000, -0.281250, 0.031250, 0.171875, -0.265625, 0.125000, 0.078125, -0.187500, -0.187500, -0.312500, 0.156250, -0.140625, -0.234375, -0.031250, 0.031250, 0.140625, -0.390625, 0.187500, 0.031250, -0.328125, 0.203125, -0.015625, 0.062500, -0.109375, 0.156250, -0.296875, -0.218750, -0.250000, -0.296875, -0.406250, 0.156250, 0.187500, -0.375000, -0.281250, 0.031250, 0.171875, -0.265625, 0.125000, 0.078125, -0.187500, -0.187500, -0.312500, 0.156250, -0.140625, -0.234375, -0.031250, 0.031250, 0.140625, -0.390625, 0.187500, 0.031250, -0.328125, 0.203125, -0.015625, 0.062500, -0.109375, 0.156250, -0.296875, -0.218750, -0.250000, -0.296875, -0.406250, 0.156250, 0.187500, -0.375000, -0.281250, 0.031250, 0.171875, -0.265625, 0.125000, 0.078125, -0.187500, -0.187500, -0.312500, 0.156250, -0.140625, -0.234375, -0.031250, 0.031250, 0.140625, -0.390625, 0.187500, 0.031250, -0.328125, 0.203125, -0.015625, 0.062500, -0.109375, 0.156250, -0.296875, -0.218750, -0.250000, -0.296875, -0.406250, 0.156250, 0.187500, -0.375000, -0.281250, 0.031250, 0.171875, -0.265625, 0.125000, 0.078125, -0.187500, -0.187500, -0.312500, 0.156250, -0.140625, -0.234375, -0.031250, 0.031250, 0.140625, -0.390625, 0.187500, 0.031250, -0.328125, 0.203125, -0.015625, 0.062500, -0.109375, 0.156250, -0.296875, -0.218750, -0.250000, -0.296875, -0.406250, 0.156250, 0.187500, -0.375000, -0.281250, 0.031250, 0.171875, -0.265625, 0.125000, 0.078125, -0.187500, -0.187500, -0.312500, 0.156250, -0.140625, -0.234375, -0.031250, 0.031250, 0.140625, -0.390625, 0.187500, 0.031250, -0.328125, 0.203125, -0.015625, 0.062500, -0.109375, 0.156250, -0.296875, -0.218750, -0.250000, -0.296875, -0.406250, 0.156250, 0.187500, -0.375000, -0.281250, 0.031250, 0.171875, -0.265625, 0.125000, 0.078125, -0.187500, -0.187500, -0.312500, 0.156250, -0.140625, -0.234375, -0.031250, 0.031250, 0.140625, -0.390625, 0.187500, 0.031250, -0.328125, 0.203125, -0.015625, 0.062500, -0.109375, 0.156250, -0.296875, -0.218750, -0.250000, -0.296875, -0.406250, 0.156250, 0.187500, -0.375000, -0.281250, 0.031250, 0.171875, -0.265625, 0.125000, 0.078125, -0.187500, -0.187500, -0.312500, 0.156250, -0.140625, -0.234375, -0.031250, 0.031250, 0.140625, -0.390625, 0.187500, 0.031250, -0.328125, 0.203125, -0.015625, 0.062500, -0.109375, 0.156250, -0.296875, -0.218750, -0.250000, -0.296875, -0.406250, 0.156250, 0.187500, -0.375000, -0.281250, 0.031250, 0.171875, -0.265625, 0.125000, 0.078125, -0.187500, -0.187500, -0.312500, 0.156250, -0.140625, -0.234375, -0.031250, 0.031250, 0.140625, -0.390625, 0.187500, 0.031250, -0.328125, 0.203125, -0.015625, 0.062500, -0.109375, 0.156250, -0.296875, -0.218750, -0.250000, -0.296875, -0.406250, 0.156250, 0.187500, -0.375000, -0.281250, 0.031250, 0.171875, -0.265625, 0.125000, 0.078125, -0.187500, -0.187500, -0.312500, 0.156250, -0.140625, -0.234375, -0.031250, 0.031250, 0.140625, -0.390625, 0.187500, 0.031250, -0.328125, 0.203125, -0.015625, 0.062500, -0.109375, 0.156250, -0.296875, -0.218750, -0.250000, -0.296875, -0.406250, 0.156250, 0.187500, -0.375000, -0.281250, 0.031250, 0.171875, -0.265625, 0.125000, 0.078125, -0.187500, -0.187500, -0.312500, 0.156250, -0.140625, -0.234375, -0.031250, 0.031250, 0.140625, -0.390625, 0.187500, 0.031250, -0.328125, 0.203125, -0.015625, 0.062500, -0.109375, 0.156250, -0.296875, -0.218750, -0.250000, -0.296875, -0.406250, 0.156250, 0.187500, -0.375000, -0.281250, 0.031250, 0.171875, -0.265625, 0.125000, 0.078125, -0.187500, -0.187500, -0.312500, 0.156250, -0.140625, -0.234375, -0.031250, 0.031250, 0.140625, -0.390625, 0.187500, 0.031250, -0.328125, 0.203125, -0.015625, 0.062500, -0.109375, 0.156250, -0.296875, -0.218750, -0.250000, -0.296875, -0.406250, 0.156250, 0.187500, -0.375000, -0.281250, 0.031250, 0.171875, -0.265625, 0.125000, 0.078125, -0.187500, -0.187500, -0.312500, 0.156250, -0.140625, -0.234375, -0.031250, 0.031250, 0.140625, -0.390625, 0.187500, 0.031250, -0.328125, 0.203125, -0.015625, 0.062500, -0.109375, 0.156250, -0.296875, -0.218750, -0.250000, -0.296875, -0.406250, 0.156250, 0.187500, -0.375000, -0.281250, 0.031250, 0.171875, -0.265625, 0.125000, 0.078125, -0.187500, -0.187500, -0.312500, 0.156250, -0.140625, -0.234375, -0.031250, 0.031250, 0.140625, -0.390625, 0.187500, 0.031250, -0.328125, 0.203125, -0.015625, 0.062500, -0.109375, 0.156250, -0.296875, -0.218750, -0.250000, -0.296875, -0.406250, 0.156250, 0.187500, -0.375000, -0.281250, 0.031250, 0.171875, -0.265625, 0.125000, 0.078125, -0.187500, -0.187500, -0.312500, 0.156250, -0.140625, -0.234375, -0.031250, 0.031250, 0.140625, -0.390625, 0.187500, 0.031250, -0.328125, 0.203125, -0.015625, 0.062500, -0.109375, 0.156250, -0.296875, -0.218750, -0.250000, -0.296875, -0.406250, 0.156250, 0.187500, -0.375000, -0.281250, 0.031250, 0.171875, -0.265625, 0.125000, 0.078125, -0.187500, -0.187500, -0.312500, 0.156250, -0.140625, -0.234375, -0.031250, 0.031250, 0.140625, -0.390625, 0.187500, 0.031250, -0.328125, 0.203125, -0.015625, 0.062500, -0.109375, 0.156250, -0.296875, -0.218750, -0.250000, -0.296875, -0.406250, 0.156250, 0.187500, -0.375000, -0.281250, 0.031250, 0.171875, -0.265625, 0.125000, 0.078125, -0.187500, -0.187500, -0.312500, 0.156250, -0.140625, -0.234375, -0.031250, 0.031250, 0.140625, -0.390625, 0.187500, 0.031250, -0.328125, 0.203125, -0.015625, 0.062500, -0.109375, 0.156250, -0.296875, -0.218750, -0.250000, -0.296875, -0.406250, 0.156250, 0.187500, -0.375000, -0.281250, 0.031250, 0.171875, -0.265625, 0.125000, 0.078125, -0.187500, -0.187500, -0.312500, 0.156250, -0.140625, -0.234375, -0.031250, 0.031250, 0.140625, -0.390625, 0.187500, 0.031250, -0.328125, 0.203125, -0.015625, 0.062500, -0.109375, 0.156250, -0.296875, -0.218750, -0.250000, -0.296875, -0.406250, 0.156250, 0.187500, -0.375000, -0.281250, 0.031250, 0.171875, -0.265625, 0.125000, 0.078125, -0.187500, -0.187500, -0.312500, 0.156250, -0.140625, -0.234375, -0.031250, 0.031250, 0.140625, -0.390625, 0.187500, 0.031250, -0.328125, 0.203125, -0.015625, 0.062500, -0.109375, 0.156250, -0.296875, -0.218750, -0.250000, -0.296875, -0.406250, 0.156250, 0.187500, -0.375000, -0.281250, 0.031250, 0.171875, -0.265625, 0.125000, 0.078125, -0.187500, -0.187500, -0.312500, 0.156250, -0.140625, -0.234375, -0.031250, 0.031250, 0.140625, -0.390625, 0.187500, 0.031250, -0.328125, 0.203125, -0.015625, 0.062500, -0.109375, 0.156250, -0.296875, -0.218750, -0.250000, -0.296875, -0.406250, 0.156250, 0.187500, -0.375000, -0.281250, 0.031250, 0.171875, -0.265625, 0.125000, 0.078125, -0.187500, -0.187500, -0.312500, 0.156250, -0.140625, -0.234375, -0.031250, 0.031250, 0.140625, -0.390625, 0.187500, 0.031250, -0.328125, 0.203125, -0.015625, 0.062500, -0.109375, 0.156250, -0.296875, -0.218750, -0.250000, -0.296875, -0.406250, 0.156250, 0.187500, -0.375000, -0.281250, 0.031250, 0.171875, -0.265625, 0.125000, 0.078125, -0.187500, -0.187500, -0.312500, 0.156250, -0.140625, -0.234375, -0.031250, 0.031250, 0.140625, -0.390625, 0.187500, 0.031250, -0.328125, 0.203125, -0.015625, 0.062500, -0.109375, 0.156250, -0.296875, -0.218750, -0.250000, -0.296875, -0.406250, 0.156250, 0.187500, -0.375000, -0.281250, 0.031250, 0.171875, -0.265625, 0.125000, 0.078125, -0.187500, -0.187500, -0.312500, 0.156250, -0.140625, -0.234375, -0.031250, 0.031250, 0.140625, -0.390625, 0.187500, 0.031250, -0.328125, 0.203125, -0.015625, 0.062500, -0.109375, 0.156250, -0.296875, -0.218750, -0.250000, -0.296875, -0.406250, 0.156250, 0.187500, -0.375000, -0.281250, 0.031250, 0.171875, -0.265625, 0.125000, 0.078125, -0.187500, -0.187500, -0.312500, 0.156250, -0.140625, -0.234375, -0.031250, 0.031250, 0.140625, -0.390625, 0.187500, 0.031250, -0.328125, 0.203125, -0.015625, 0.062500, -0.109375, 0.156250, -0.296875, -0.218750, -0.250000, -0.296875, -0.406250, 0.156250, 0.187500, -0.375000, -0.281250, 0.031250, 0.171875, -0.265625, 0.125000, 0.078125, -0.187500, -0.187500, -0.312500, 0.156250, -0.140625, -0.234375, -0.031250, 0.031250, 0.140625, -0.390625, 0.187500, 0.031250, -0.328125, 0.203125, -0.015625, 0.062500, -0.109375, 0.156250, -0.296875, -0.218750, -0.250000, -0.296875, -0.406250, 0.156250, 0.187500, -0.375000, -0.281250, 0.031250, 0.171875, -0.265625, 0.125000, 0.078125, -0.187500, -0.187500, -0.312500, 0.156250, -0.140625, -0.234375, -0.031250, 0.031250, 0.140625, -0.390625, 0.187500, 0.031250, -0.328125, 0.203125, -0.015625, 0.062500, -0.109375, 0.156250, -0.296875, -0.218750, -0.250000, -0.296875, -0.406250, 0.156250, 0.187500, -0.375000, -0.281250, 0.031250, 0.171875, -0.265625, 0.125000, 0.078125, -0.187500, -0.187500, -0.312500, 0.156250, -0.140625, -0.234375, -0.031250, 0.031250, 0.140625, -0.390625, 0.187500, 0.031250, -0.328125, 0.203125, -0.015625, 0.062500, -0.109375, 0.156250, -0.296875, -0.218750}};

#endif
