//Numpy array shape [48, 1, 32]
//Min -0.154296875000
//Max 0.167968750000
//Number of zeros 0

#ifndef B50_H_
#define B50_H_

[[intel::fpga_memory]] static constexpr b50_t b50 = {{-0.154296875, -0.117187500, 0.041015625, 0.091796875, 0.017578125, -0.050781250, -0.039062500, -0.003906250, 0.025390625, -0.015625000, 0.087890625, -0.095703125, 0.148437500, 0.125000000, -0.001953125, 0.003906250, -0.029296875, -0.121093750, 0.056640625, 0.068359375, 0.113281250, 0.148437500, 0.128906250, 0.068359375, 0.167968750, 0.042968750, -0.011718750, -0.142578125, 0.160156250, 0.035156250, 0.091796875, 0.019531250, -0.154296875, -0.117187500, 0.041015625, 0.091796875, 0.017578125, -0.050781250, -0.039062500, -0.003906250, 0.025390625, -0.015625000, 0.087890625, -0.095703125, 0.148437500, 0.125000000, -0.001953125, 0.003906250, -0.029296875, -0.121093750, 0.056640625, 0.068359375, 0.113281250, 0.148437500, 0.128906250, 0.068359375, 0.167968750, 0.042968750, -0.011718750, -0.142578125, 0.160156250, 0.035156250, 0.091796875, 0.019531250, -0.154296875, -0.117187500, 0.041015625, 0.091796875, 0.017578125, -0.050781250, -0.039062500, -0.003906250, 0.025390625, -0.015625000, 0.087890625, -0.095703125, 0.148437500, 0.125000000, -0.001953125, 0.003906250, -0.029296875, -0.121093750, 0.056640625, 0.068359375, 0.113281250, 0.148437500, 0.128906250, 0.068359375, 0.167968750, 0.042968750, -0.011718750, -0.142578125, 0.160156250, 0.035156250, 0.091796875, 0.019531250, -0.154296875, -0.117187500, 0.041015625, 0.091796875, 0.017578125, -0.050781250, -0.039062500, -0.003906250, 0.025390625, -0.015625000, 0.087890625, -0.095703125, 0.148437500, 0.125000000, -0.001953125, 0.003906250, -0.029296875, -0.121093750, 0.056640625, 0.068359375, 0.113281250, 0.148437500, 0.128906250, 0.068359375, 0.167968750, 0.042968750, -0.011718750, -0.142578125, 0.160156250, 0.035156250, 0.091796875, 0.019531250, -0.154296875, -0.117187500, 0.041015625, 0.091796875, 0.017578125, -0.050781250, -0.039062500, -0.003906250, 0.025390625, -0.015625000, 0.087890625, -0.095703125, 0.148437500, 0.125000000, -0.001953125, 0.003906250, -0.029296875, -0.121093750, 0.056640625, 0.068359375, 0.113281250, 0.148437500, 0.128906250, 0.068359375, 0.167968750, 0.042968750, -0.011718750, -0.142578125, 0.160156250, 0.035156250, 0.091796875, 0.019531250, -0.154296875, -0.117187500, 0.041015625, 0.091796875, 0.017578125, -0.050781250, -0.039062500, -0.003906250, 0.025390625, -0.015625000, 0.087890625, -0.095703125, 0.148437500, 0.125000000, -0.001953125, 0.003906250, -0.029296875, -0.121093750, 0.056640625, 0.068359375, 0.113281250, 0.148437500, 0.128906250, 0.068359375, 0.167968750, 0.042968750, -0.011718750, -0.142578125, 0.160156250, 0.035156250, 0.091796875, 0.019531250, -0.154296875, -0.117187500, 0.041015625, 0.091796875, 0.017578125, -0.050781250, -0.039062500, -0.003906250, 0.025390625, -0.015625000, 0.087890625, -0.095703125, 0.148437500, 0.125000000, -0.001953125, 0.003906250, -0.029296875, -0.121093750, 0.056640625, 0.068359375, 0.113281250, 0.148437500, 0.128906250, 0.068359375, 0.167968750, 0.042968750, -0.011718750, -0.142578125, 0.160156250, 0.035156250, 0.091796875, 0.019531250, -0.154296875, -0.117187500, 0.041015625, 0.091796875, 0.017578125, -0.050781250, -0.039062500, -0.003906250, 0.025390625, -0.015625000, 0.087890625, -0.095703125, 0.148437500, 0.125000000, -0.001953125, 0.003906250, -0.029296875, -0.121093750, 0.056640625, 0.068359375, 0.113281250, 0.148437500, 0.128906250, 0.068359375, 0.167968750, 0.042968750, -0.011718750, -0.142578125, 0.160156250, 0.035156250, 0.091796875, 0.019531250, -0.154296875, -0.117187500, 0.041015625, 0.091796875, 0.017578125, -0.050781250, -0.039062500, -0.003906250, 0.025390625, -0.015625000, 0.087890625, -0.095703125, 0.148437500, 0.125000000, -0.001953125, 0.003906250, -0.029296875, -0.121093750, 0.056640625, 0.068359375, 0.113281250, 0.148437500, 0.128906250, 0.068359375, 0.167968750, 0.042968750, -0.011718750, -0.142578125, 0.160156250, 0.035156250, 0.091796875, 0.019531250, -0.154296875, -0.117187500, 0.041015625, 0.091796875, 0.017578125, -0.050781250, -0.039062500, -0.003906250, 0.025390625, -0.015625000, 0.087890625, -0.095703125, 0.148437500, 0.125000000, -0.001953125, 0.003906250, -0.029296875, -0.121093750, 0.056640625, 0.068359375, 0.113281250, 0.148437500, 0.128906250, 0.068359375, 0.167968750, 0.042968750, -0.011718750, -0.142578125, 0.160156250, 0.035156250, 0.091796875, 0.019531250, -0.154296875, -0.117187500, 0.041015625, 0.091796875, 0.017578125, -0.050781250, -0.039062500, -0.003906250, 0.025390625, -0.015625000, 0.087890625, -0.095703125, 0.148437500, 0.125000000, -0.001953125, 0.003906250, -0.029296875, -0.121093750, 0.056640625, 0.068359375, 0.113281250, 0.148437500, 0.128906250, 0.068359375, 0.167968750, 0.042968750, -0.011718750, -0.142578125, 0.160156250, 0.035156250, 0.091796875, 0.019531250, -0.154296875, -0.117187500, 0.041015625, 0.091796875, 0.017578125, -0.050781250, -0.039062500, -0.003906250, 0.025390625, -0.015625000, 0.087890625, -0.095703125, 0.148437500, 0.125000000, -0.001953125, 0.003906250, -0.029296875, -0.121093750, 0.056640625, 0.068359375, 0.113281250, 0.148437500, 0.128906250, 0.068359375, 0.167968750, 0.042968750, -0.011718750, -0.142578125, 0.160156250, 0.035156250, 0.091796875, 0.019531250, -0.154296875, -0.117187500, 0.041015625, 0.091796875, 0.017578125, -0.050781250, -0.039062500, -0.003906250, 0.025390625, -0.015625000, 0.087890625, -0.095703125, 0.148437500, 0.125000000, -0.001953125, 0.003906250, -0.029296875, -0.121093750, 0.056640625, 0.068359375, 0.113281250, 0.148437500, 0.128906250, 0.068359375, 0.167968750, 0.042968750, -0.011718750, -0.142578125, 0.160156250, 0.035156250, 0.091796875, 0.019531250, -0.154296875, -0.117187500, 0.041015625, 0.091796875, 0.017578125, -0.050781250, -0.039062500, -0.003906250, 0.025390625, -0.015625000, 0.087890625, -0.095703125, 0.148437500, 0.125000000, -0.001953125, 0.003906250, -0.029296875, -0.121093750, 0.056640625, 0.068359375, 0.113281250, 0.148437500, 0.128906250, 0.068359375, 0.167968750, 0.042968750, -0.011718750, -0.142578125, 0.160156250, 0.035156250, 0.091796875, 0.019531250, -0.154296875, -0.117187500, 0.041015625, 0.091796875, 0.017578125, -0.050781250, -0.039062500, -0.003906250, 0.025390625, -0.015625000, 0.087890625, -0.095703125, 0.148437500, 0.125000000, -0.001953125, 0.003906250, -0.029296875, -0.121093750, 0.056640625, 0.068359375, 0.113281250, 0.148437500, 0.128906250, 0.068359375, 0.167968750, 0.042968750, -0.011718750, -0.142578125, 0.160156250, 0.035156250, 0.091796875, 0.019531250, -0.154296875, -0.117187500, 0.041015625, 0.091796875, 0.017578125, -0.050781250, -0.039062500, -0.003906250, 0.025390625, -0.015625000, 0.087890625, -0.095703125, 0.148437500, 0.125000000, -0.001953125, 0.003906250, -0.029296875, -0.121093750, 0.056640625, 0.068359375, 0.113281250, 0.148437500, 0.128906250, 0.068359375, 0.167968750, 0.042968750, -0.011718750, -0.142578125, 0.160156250, 0.035156250, 0.091796875, 0.019531250, -0.154296875, -0.117187500, 0.041015625, 0.091796875, 0.017578125, -0.050781250, -0.039062500, -0.003906250, 0.025390625, -0.015625000, 0.087890625, -0.095703125, 0.148437500, 0.125000000, -0.001953125, 0.003906250, -0.029296875, -0.121093750, 0.056640625, 0.068359375, 0.113281250, 0.148437500, 0.128906250, 0.068359375, 0.167968750, 0.042968750, -0.011718750, -0.142578125, 0.160156250, 0.035156250, 0.091796875, 0.019531250, -0.154296875, -0.117187500, 0.041015625, 0.091796875, 0.017578125, -0.050781250, -0.039062500, -0.003906250, 0.025390625, -0.015625000, 0.087890625, -0.095703125, 0.148437500, 0.125000000, -0.001953125, 0.003906250, -0.029296875, -0.121093750, 0.056640625, 0.068359375, 0.113281250, 0.148437500, 0.128906250, 0.068359375, 0.167968750, 0.042968750, -0.011718750, -0.142578125, 0.160156250, 0.035156250, 0.091796875, 0.019531250, -0.154296875, -0.117187500, 0.041015625, 0.091796875, 0.017578125, -0.050781250, -0.039062500, -0.003906250, 0.025390625, -0.015625000, 0.087890625, -0.095703125, 0.148437500, 0.125000000, -0.001953125, 0.003906250, -0.029296875, -0.121093750, 0.056640625, 0.068359375, 0.113281250, 0.148437500, 0.128906250, 0.068359375, 0.167968750, 0.042968750, -0.011718750, -0.142578125, 0.160156250, 0.035156250, 0.091796875, 0.019531250, -0.154296875, -0.117187500, 0.041015625, 0.091796875, 0.017578125, -0.050781250, -0.039062500, -0.003906250, 0.025390625, -0.015625000, 0.087890625, -0.095703125, 0.148437500, 0.125000000, -0.001953125, 0.003906250, -0.029296875, -0.121093750, 0.056640625, 0.068359375, 0.113281250, 0.148437500, 0.128906250, 0.068359375, 0.167968750, 0.042968750, -0.011718750, -0.142578125, 0.160156250, 0.035156250, 0.091796875, 0.019531250, -0.154296875, -0.117187500, 0.041015625, 0.091796875, 0.017578125, -0.050781250, -0.039062500, -0.003906250, 0.025390625, -0.015625000, 0.087890625, -0.095703125, 0.148437500, 0.125000000, -0.001953125, 0.003906250, -0.029296875, -0.121093750, 0.056640625, 0.068359375, 0.113281250, 0.148437500, 0.128906250, 0.068359375, 0.167968750, 0.042968750, -0.011718750, -0.142578125, 0.160156250, 0.035156250, 0.091796875, 0.019531250, -0.154296875, -0.117187500, 0.041015625, 0.091796875, 0.017578125, -0.050781250, -0.039062500, -0.003906250, 0.025390625, -0.015625000, 0.087890625, -0.095703125, 0.148437500, 0.125000000, -0.001953125, 0.003906250, -0.029296875, -0.121093750, 0.056640625, 0.068359375, 0.113281250, 0.148437500, 0.128906250, 0.068359375, 0.167968750, 0.042968750, -0.011718750, -0.142578125, 0.160156250, 0.035156250, 0.091796875, 0.019531250, -0.154296875, -0.117187500, 0.041015625, 0.091796875, 0.017578125, -0.050781250, -0.039062500, -0.003906250, 0.025390625, -0.015625000, 0.087890625, -0.095703125, 0.148437500, 0.125000000, -0.001953125, 0.003906250, -0.029296875, -0.121093750, 0.056640625, 0.068359375, 0.113281250, 0.148437500, 0.128906250, 0.068359375, 0.167968750, 0.042968750, -0.011718750, -0.142578125, 0.160156250, 0.035156250, 0.091796875, 0.019531250, -0.154296875, -0.117187500, 0.041015625, 0.091796875, 0.017578125, -0.050781250, -0.039062500, -0.003906250, 0.025390625, -0.015625000, 0.087890625, -0.095703125, 0.148437500, 0.125000000, -0.001953125, 0.003906250, -0.029296875, -0.121093750, 0.056640625, 0.068359375, 0.113281250, 0.148437500, 0.128906250, 0.068359375, 0.167968750, 0.042968750, -0.011718750, -0.142578125, 0.160156250, 0.035156250, 0.091796875, 0.019531250, -0.154296875, -0.117187500, 0.041015625, 0.091796875, 0.017578125, -0.050781250, -0.039062500, -0.003906250, 0.025390625, -0.015625000, 0.087890625, -0.095703125, 0.148437500, 0.125000000, -0.001953125, 0.003906250, -0.029296875, -0.121093750, 0.056640625, 0.068359375, 0.113281250, 0.148437500, 0.128906250, 0.068359375, 0.167968750, 0.042968750, -0.011718750, -0.142578125, 0.160156250, 0.035156250, 0.091796875, 0.019531250, -0.154296875, -0.117187500, 0.041015625, 0.091796875, 0.017578125, -0.050781250, -0.039062500, -0.003906250, 0.025390625, -0.015625000, 0.087890625, -0.095703125, 0.148437500, 0.125000000, -0.001953125, 0.003906250, -0.029296875, -0.121093750, 0.056640625, 0.068359375, 0.113281250, 0.148437500, 0.128906250, 0.068359375, 0.167968750, 0.042968750, -0.011718750, -0.142578125, 0.160156250, 0.035156250, 0.091796875, 0.019531250, -0.154296875, -0.117187500, 0.041015625, 0.091796875, 0.017578125, -0.050781250, -0.039062500, -0.003906250, 0.025390625, -0.015625000, 0.087890625, -0.095703125, 0.148437500, 0.125000000, -0.001953125, 0.003906250, -0.029296875, -0.121093750, 0.056640625, 0.068359375, 0.113281250, 0.148437500, 0.128906250, 0.068359375, 0.167968750, 0.042968750, -0.011718750, -0.142578125, 0.160156250, 0.035156250, 0.091796875, 0.019531250, -0.154296875, -0.117187500, 0.041015625, 0.091796875, 0.017578125, -0.050781250, -0.039062500, -0.003906250, 0.025390625, -0.015625000, 0.087890625, -0.095703125, 0.148437500, 0.125000000, -0.001953125, 0.003906250, -0.029296875, -0.121093750, 0.056640625, 0.068359375, 0.113281250, 0.148437500, 0.128906250, 0.068359375, 0.167968750, 0.042968750, -0.011718750, -0.142578125, 0.160156250, 0.035156250, 0.091796875, 0.019531250, -0.154296875, -0.117187500, 0.041015625, 0.091796875, 0.017578125, -0.050781250, -0.039062500, -0.003906250, 0.025390625, -0.015625000, 0.087890625, -0.095703125, 0.148437500, 0.125000000, -0.001953125, 0.003906250, -0.029296875, -0.121093750, 0.056640625, 0.068359375, 0.113281250, 0.148437500, 0.128906250, 0.068359375, 0.167968750, 0.042968750, -0.011718750, -0.142578125, 0.160156250, 0.035156250, 0.091796875, 0.019531250, -0.154296875, -0.117187500, 0.041015625, 0.091796875, 0.017578125, -0.050781250, -0.039062500, -0.003906250, 0.025390625, -0.015625000, 0.087890625, -0.095703125, 0.148437500, 0.125000000, -0.001953125, 0.003906250, -0.029296875, -0.121093750, 0.056640625, 0.068359375, 0.113281250, 0.148437500, 0.128906250, 0.068359375, 0.167968750, 0.042968750, -0.011718750, -0.142578125, 0.160156250, 0.035156250, 0.091796875, 0.019531250, -0.154296875, -0.117187500, 0.041015625, 0.091796875, 0.017578125, -0.050781250, -0.039062500, -0.003906250, 0.025390625, -0.015625000, 0.087890625, -0.095703125, 0.148437500, 0.125000000, -0.001953125, 0.003906250, -0.029296875, -0.121093750, 0.056640625, 0.068359375, 0.113281250, 0.148437500, 0.128906250, 0.068359375, 0.167968750, 0.042968750, -0.011718750, -0.142578125, 0.160156250, 0.035156250, 0.091796875, 0.019531250, -0.154296875, -0.117187500, 0.041015625, 0.091796875, 0.017578125, -0.050781250, -0.039062500, -0.003906250, 0.025390625, -0.015625000, 0.087890625, -0.095703125, 0.148437500, 0.125000000, -0.001953125, 0.003906250, -0.029296875, -0.121093750, 0.056640625, 0.068359375, 0.113281250, 0.148437500, 0.128906250, 0.068359375, 0.167968750, 0.042968750, -0.011718750, -0.142578125, 0.160156250, 0.035156250, 0.091796875, 0.019531250, -0.154296875, -0.117187500, 0.041015625, 0.091796875, 0.017578125, -0.050781250, -0.039062500, -0.003906250, 0.025390625, -0.015625000, 0.087890625, -0.095703125, 0.148437500, 0.125000000, -0.001953125, 0.003906250, -0.029296875, -0.121093750, 0.056640625, 0.068359375, 0.113281250, 0.148437500, 0.128906250, 0.068359375, 0.167968750, 0.042968750, -0.011718750, -0.142578125, 0.160156250, 0.035156250, 0.091796875, 0.019531250, -0.154296875, -0.117187500, 0.041015625, 0.091796875, 0.017578125, -0.050781250, -0.039062500, -0.003906250, 0.025390625, -0.015625000, 0.087890625, -0.095703125, 0.148437500, 0.125000000, -0.001953125, 0.003906250, -0.029296875, -0.121093750, 0.056640625, 0.068359375, 0.113281250, 0.148437500, 0.128906250, 0.068359375, 0.167968750, 0.042968750, -0.011718750, -0.142578125, 0.160156250, 0.035156250, 0.091796875, 0.019531250, -0.154296875, -0.117187500, 0.041015625, 0.091796875, 0.017578125, -0.050781250, -0.039062500, -0.003906250, 0.025390625, -0.015625000, 0.087890625, -0.095703125, 0.148437500, 0.125000000, -0.001953125, 0.003906250, -0.029296875, -0.121093750, 0.056640625, 0.068359375, 0.113281250, 0.148437500, 0.128906250, 0.068359375, 0.167968750, 0.042968750, -0.011718750, -0.142578125, 0.160156250, 0.035156250, 0.091796875, 0.019531250, -0.154296875, -0.117187500, 0.041015625, 0.091796875, 0.017578125, -0.050781250, -0.039062500, -0.003906250, 0.025390625, -0.015625000, 0.087890625, -0.095703125, 0.148437500, 0.125000000, -0.001953125, 0.003906250, -0.029296875, -0.121093750, 0.056640625, 0.068359375, 0.113281250, 0.148437500, 0.128906250, 0.068359375, 0.167968750, 0.042968750, -0.011718750, -0.142578125, 0.160156250, 0.035156250, 0.091796875, 0.019531250, -0.154296875, -0.117187500, 0.041015625, 0.091796875, 0.017578125, -0.050781250, -0.039062500, -0.003906250, 0.025390625, -0.015625000, 0.087890625, -0.095703125, 0.148437500, 0.125000000, -0.001953125, 0.003906250, -0.029296875, -0.121093750, 0.056640625, 0.068359375, 0.113281250, 0.148437500, 0.128906250, 0.068359375, 0.167968750, 0.042968750, -0.011718750, -0.142578125, 0.160156250, 0.035156250, 0.091796875, 0.019531250, -0.154296875, -0.117187500, 0.041015625, 0.091796875, 0.017578125, -0.050781250, -0.039062500, -0.003906250, 0.025390625, -0.015625000, 0.087890625, -0.095703125, 0.148437500, 0.125000000, -0.001953125, 0.003906250, -0.029296875, -0.121093750, 0.056640625, 0.068359375, 0.113281250, 0.148437500, 0.128906250, 0.068359375, 0.167968750, 0.042968750, -0.011718750, -0.142578125, 0.160156250, 0.035156250, 0.091796875, 0.019531250, -0.154296875, -0.117187500, 0.041015625, 0.091796875, 0.017578125, -0.050781250, -0.039062500, -0.003906250, 0.025390625, -0.015625000, 0.087890625, -0.095703125, 0.148437500, 0.125000000, -0.001953125, 0.003906250, -0.029296875, -0.121093750, 0.056640625, 0.068359375, 0.113281250, 0.148437500, 0.128906250, 0.068359375, 0.167968750, 0.042968750, -0.011718750, -0.142578125, 0.160156250, 0.035156250, 0.091796875, 0.019531250, -0.154296875, -0.117187500, 0.041015625, 0.091796875, 0.017578125, -0.050781250, -0.039062500, -0.003906250, 0.025390625, -0.015625000, 0.087890625, -0.095703125, 0.148437500, 0.125000000, -0.001953125, 0.003906250, -0.029296875, -0.121093750, 0.056640625, 0.068359375, 0.113281250, 0.148437500, 0.128906250, 0.068359375, 0.167968750, 0.042968750, -0.011718750, -0.142578125, 0.160156250, 0.035156250, 0.091796875, 0.019531250, -0.154296875, -0.117187500, 0.041015625, 0.091796875, 0.017578125, -0.050781250, -0.039062500, -0.003906250, 0.025390625, -0.015625000, 0.087890625, -0.095703125, 0.148437500, 0.125000000, -0.001953125, 0.003906250, -0.029296875, -0.121093750, 0.056640625, 0.068359375, 0.113281250, 0.148437500, 0.128906250, 0.068359375, 0.167968750, 0.042968750, -0.011718750, -0.142578125, 0.160156250, 0.035156250, 0.091796875, 0.019531250, -0.154296875, -0.117187500, 0.041015625, 0.091796875, 0.017578125, -0.050781250, -0.039062500, -0.003906250, 0.025390625, -0.015625000, 0.087890625, -0.095703125, 0.148437500, 0.125000000, -0.001953125, 0.003906250, -0.029296875, -0.121093750, 0.056640625, 0.068359375, 0.113281250, 0.148437500, 0.128906250, 0.068359375, 0.167968750, 0.042968750, -0.011718750, -0.142578125, 0.160156250, 0.035156250, 0.091796875, 0.019531250, -0.154296875, -0.117187500, 0.041015625, 0.091796875, 0.017578125, -0.050781250, -0.039062500, -0.003906250, 0.025390625, -0.015625000, 0.087890625, -0.095703125, 0.148437500, 0.125000000, -0.001953125, 0.003906250, -0.029296875, -0.121093750, 0.056640625, 0.068359375, 0.113281250, 0.148437500, 0.128906250, 0.068359375, 0.167968750, 0.042968750, -0.011718750, -0.142578125, 0.160156250, 0.035156250, 0.091796875, 0.019531250, -0.154296875, -0.117187500, 0.041015625, 0.091796875, 0.017578125, -0.050781250, -0.039062500, -0.003906250, 0.025390625, -0.015625000, 0.087890625, -0.095703125, 0.148437500, 0.125000000, -0.001953125, 0.003906250, -0.029296875, -0.121093750, 0.056640625, 0.068359375, 0.113281250, 0.148437500, 0.128906250, 0.068359375, 0.167968750, 0.042968750, -0.011718750, -0.142578125, 0.160156250, 0.035156250, 0.091796875, 0.019531250, -0.154296875, -0.117187500, 0.041015625, 0.091796875, 0.017578125, -0.050781250, -0.039062500, -0.003906250, 0.025390625, -0.015625000, 0.087890625, -0.095703125, 0.148437500, 0.125000000, -0.001953125, 0.003906250, -0.029296875, -0.121093750, 0.056640625, 0.068359375, 0.113281250, 0.148437500, 0.128906250, 0.068359375, 0.167968750, 0.042968750, -0.011718750, -0.142578125, 0.160156250, 0.035156250, 0.091796875, 0.019531250, -0.154296875, -0.117187500, 0.041015625, 0.091796875, 0.017578125, -0.050781250, -0.039062500, -0.003906250, 0.025390625, -0.015625000, 0.087890625, -0.095703125, 0.148437500, 0.125000000, -0.001953125, 0.003906250, -0.029296875, -0.121093750, 0.056640625, 0.068359375, 0.113281250, 0.148437500, 0.128906250, 0.068359375, 0.167968750, 0.042968750, -0.011718750, -0.142578125, 0.160156250, 0.035156250, 0.091796875, 0.019531250, -0.154296875, -0.117187500, 0.041015625, 0.091796875, 0.017578125, -0.050781250, -0.039062500, -0.003906250, 0.025390625, -0.015625000, 0.087890625, -0.095703125, 0.148437500, 0.125000000, -0.001953125, 0.003906250, -0.029296875, -0.121093750, 0.056640625, 0.068359375, 0.113281250, 0.148437500, 0.128906250, 0.068359375, 0.167968750, 0.042968750, -0.011718750, -0.142578125, 0.160156250, 0.035156250, 0.091796875, 0.019531250, -0.154296875, -0.117187500, 0.041015625, 0.091796875, 0.017578125, -0.050781250, -0.039062500, -0.003906250, 0.025390625, -0.015625000, 0.087890625, -0.095703125, 0.148437500, 0.125000000, -0.001953125, 0.003906250, -0.029296875, -0.121093750, 0.056640625, 0.068359375, 0.113281250, 0.148437500, 0.128906250, 0.068359375, 0.167968750, 0.042968750, -0.011718750, -0.142578125, 0.160156250, 0.035156250, 0.091796875, 0.019531250}};

#endif
