//Numpy array shape [1024]
//Min -4.000000000000
//Max 4.250000000000
//Number of zeros 31

#ifndef B80_H_
#define B80_H_

[[intel::fpga_memory]] static constexpr b80_t b80 = {{-0.750, 4.250, -3.375, 0.375, 1.000, 0.750, 0.625, 0.000, 1.375, 1.375, 0.375, 0.250, -0.625, 0.875, 0.500, 2.250, 0.125, 1.000, 0.375, 0.000, 0.750, 1.250, 0.875, 0.875, -1.000, -0.500, 0.000, 1.750, -1.125, 1.250, 1.125, -0.625, 0.875, 2.000, 1.000, 4.125, 1.000, 0.500, -0.125, 0.750, -0.750, 0.375, 0.500, 0.625, -1.125, 0.125, -1.500, -0.375, -0.375, -2.125, -0.875, -0.750, 0.500, 0.500, 1.750, 0.250, 0.625, 0.750, 0.125, 0.250, 0.250, -0.625, 1.125, 1.000, -1.625, 1.125, -0.125, 1.375, 1.125, 1.125, 2.375, 0.125, 0.125, 2.000, 0.625, -0.750, 1.875, -1.125, -1.250, -0.375, 0.625, 1.125, -0.125, 1.625, 0.750, 0.250, 0.000, 0.500, 0.250, -0.125, -0.375, 0.625, 0.250, 1.750, 1.250, -1.250, 0.250, 1.625, 0.500, 1.000, 0.500, 0.000, 0.625, -0.125, 0.375, -0.375, 0.000, 0.000, 1.000, -0.375, -0.625, 0.375, -0.625, 1.000, -0.125, 0.125, -1.125, 1.125, 0.375, -1.250, -0.125, 2.500, -0.125, 0.625, -1.000, -0.125, -0.500, 1.000, -0.125, -1.125, -0.625, -0.375, -2.375, -0.500, 0.125, -0.750, -1.000, 0.750, -0.375, 1.375, 0.000, -0.500, -2.625, 0.250, -0.125, -0.125, -0.125, 1.250, -0.125, -1.250, 0.000, 0.375, -0.875, 0.625, -1.500, 0.000, -0.750, -0.750, 0.750, 0.875, 0.500, -0.250, -0.625, -1.125, -0.625, 0.500, -2.000, -0.500, 1.625, 0.875, -1.625, 0.750, -1.625, 0.750, 0.875, 0.500, -1.375, 0.375, 0.750, -2.875, -0.625, -1.250, -1.500, -0.625, -0.750, -1.125, -0.500, 0.125, 0.750, -1.375, -1.500, -0.500, -1.500, 1.250, -0.875, -0.500, -1.000, -0.250, -2.000, 0.750, -0.750, 3.000, 2.500, -0.375, -1.750, 0.500, -0.625, 0.000, 0.875, 0.125, 0.250, -0.375, -0.500, -0.750, 0.875, -0.375, -1.375, 0.250, 0.000, 0.500, -1.375, 1.750, 0.125, -1.750, 1.375, -1.625, -1.000, -1.375, 0.625, 0.875, 0.875, 1.000, -0.625, 0.250, -0.875, 0.250, -1.875, 0.750, 1.000, 0.500, -0.250, -0.375, 0.250, 1.250, -1.250, -0.250, -0.625, 0.250, 0.875, 1.500, 1.000, 0.875, -1.750, -0.375, 0.000, -0.125, 0.750, -0.750, -0.625, -0.125, 0.125, -0.375, -1.000, -0.625, -1.375, -0.375, 1.250, -1.500, -0.500, 0.000, -1.250, -0.625, -0.625, -0.750, -0.250, -2.000, -2.250, 0.625, -1.875, 2.875, -0.375, -0.375, -2.625, -2.125, -0.500, -0.625, 1.375, 0.500, -0.125, -1.625, -1.250, 0.500, -0.250, 0.000, -0.375, -1.500, -1.000, 0.500, -0.750, 0.250, 0.250, -0.375, -0.750, -1.125, 0.125, -1.125, -1.000, -0.375, -1.000, -1.000, 0.625, -1.500, -0.375, -0.625, 0.250, -0.375, 0.000, 1.500, -0.375, -2.250, -1.750, -0.500, -1.750, 0.375, 0.000, 0.125, -0.750, 0.625, 0.000, -2.125, 0.000, -0.250, -0.625, 0.125, -1.125, 0.375, -1.250, 0.000, 0.375, 0.625, -1.000, -0.875, -0.500, -0.625, -0.875, -1.625, -0.875, 0.000, -0.875, -0.625, -0.875, 0.375, -0.125, -0.875, 0.125, -1.875, -0.625, -0.250, -0.875, 1.500, -0.625, -1.125, 0.125, -3.625, -1.750, -2.375, -1.500, -0.500, -1.250, 1.250, -0.375, 0.250, -2.250, 0.000, -0.625, -0.375, -2.000, -2.000, -1.500, -0.625, 0.125, -1.625, 0.625, -0.500, -1.500, -1.375, -0.875, -0.875, 1.250, -0.125, -0.875, -2.125, 1.000, -0.125, 0.125, -0.875, -0.625, -0.625, -0.250, -0.375, -0.875, -0.625, -1.000, -0.875, -1.125, -0.875, -1.125, 0.375, -1.625, 0.125, -0.875, -0.625, -1.750, -0.625, -1.750, -0.375, -0.875, -0.500, -0.125, -1.375, -1.000, 0.125, -0.375, -0.625, 0.500, -0.875, -0.750, -0.625, 1.125, -1.000, -0.500, 0.125, -1.750, -0.375, -1.375, -2.250, -2.250, -1.250, 0.500, -0.750, -1.000, -1.500, -1.250, 0.375, -0.375, 0.000, -0.875, -1.375, 0.250, -0.500, -2.000, -0.500, -1.500, -2.750, 0.125, -1.125, -2.750, -2.625, -0.875, -0.750, -0.375, -0.625, -1.000, -0.250, -1.375, -0.875, -1.750, -2.000, -1.750, -1.125, 0.125, -0.375, -1.000, -1.000, -1.125, -1.250, -0.625, -1.375, -0.375, -1.875, 0.125, 0.125, 1.125, 0.375, -0.500, -0.375, -1.125, -2.125, 0.375, -0.250, -0.375, -0.750, -0.375, -0.375, -1.750, -0.875, -1.750, 0.500, -2.125, -0.500, -1.250, -0.750, -2.375, -0.750, -1.125, -1.375, -0.500, -1.500, -0.250, -1.250, -1.125, -1.125, -1.000, 1.000, 1.375, -1.625, 0.500, -0.625, -0.750, -2.625, -0.750, -0.875, -1.250, -1.375, -0.750, -1.625, -1.625, 0.375, -0.625, 0.500, 1.125, -0.625, -1.500, 1.000, 0.000, -0.500, -1.125, -1.125, -1.000, -2.000, -1.250, -3.125, -2.250, -0.625, 0.750, -0.750, 0.375, -1.625, -0.750, -0.750, -1.625, -0.875, -0.750, -2.500, -1.875, -1.375, -1.125, -1.375, -2.250, -1.625, 0.500, -1.250, 0.250, -1.375, 0.625, -1.000, -0.750, -1.375, -0.750, -3.000, 0.875, -0.250, -1.125, -0.875, -1.250, -0.750, -1.000, -1.500, -1.000, 0.000, -1.125, -1.375, 0.875, -0.125, 0.125, -1.250, -0.500, -1.375, -0.500, -1.750, -2.250, -0.875, -2.000, -0.375, -0.875, -0.125, -0.625, -1.750, -1.375, -0.875, -1.250, -0.250, -0.375, -0.625, -2.125, 1.250, -1.875, 0.375, -0.875, 0.500, -2.250, -0.875, 0.500, -0.625, -0.625, -0.625, -0.750, 0.625, -0.875, -0.750, -1.250, -0.750, 1.500, -1.750, -1.375, -0.625, -1.500, -2.125, -1.375, -1.250, -0.250, -1.250, 0.250, -1.750, -1.250, -3.375, -1.500, -0.500, -1.000, 0.750, -1.875, -2.625, -0.375, -2.000, -1.625, 0.000, -1.750, -1.875, -0.625, -1.250, -1.500, -1.625, 0.000, -1.375, -1.125, -1.500, -0.500, -1.500, -0.625, 0.125, -0.375, 0.000, -0.625, -1.000, -0.250, -1.125, -0.250, -1.125, -2.625, -1.750, -0.375, -1.250, -1.625, -2.000, -1.000, -1.250, -2.000, -0.625, -0.500, -1.250, 0.375, 1.125, -0.875, -2.000, -1.250, 0.250, -1.625, -3.125, -2.750, -0.500, -1.375, -0.500, -0.375, -0.875, 0.250, -1.500, 0.250, -0.250, -1.250, 1.375, -1.375, -2.375, -0.500, -1.375, -0.375, -0.375, -1.125, -3.750, -0.500, -0.250, -2.250, -3.125, -1.250, -1.000, -1.625, -0.625, -1.375, -1.125, 0.500, -1.250, -0.250, -1.250, -1.125, -1.000, 1.250, -0.375, -1.000, -2.375, 0.250, -0.625, -2.125, -1.000, -1.125, -0.875, -1.000, -2.625, -2.250, -0.875, -1.875, -0.500, -2.125, 0.250, -0.875, -1.500, -2.500, -0.750, 0.000, -0.375, -1.125, -1.625, -0.875, -1.750, -2.500, -1.750, -1.125, -0.625, -1.750, -1.000, -1.375, -0.875, -0.750, -1.625, -1.125, 0.125, -2.125, -1.000, -1.875, -1.750, -1.000, -1.250, 0.000, -1.625, -2.625, -1.250, -1.500, -2.375, -1.000, 0.250, -1.125, 0.500, -1.000, -2.000, 0.750, -2.750, -3.000, -1.625, -1.375, -0.625, -1.375, -1.500, -1.625, -1.000, -1.250, -2.250, -2.125, -1.625, 0.000, -2.000, 0.500, -2.000, -0.875, 0.125, -0.750, 0.250, -1.000, -2.375, -2.000, -0.250, -2.250, -0.250, -1.250, 0.125, -0.750, -0.875, -1.000, -0.875, -2.000, -1.375, -0.500, -0.875, -1.625, 0.250, -1.250, -0.750, -1.625, -0.500, -1.875, -1.250, -1.500, -1.250, -0.750, -1.250, -0.375, -2.000, -0.375, -0.500, -1.250, -1.875, -0.875, -0.750, -2.375, -0.875, -1.625, -1.000, -0.625, -0.125, -1.500, -1.625, -2.375, -0.625, -0.750, -1.750, -1.000, 0.375, -0.750, -1.500, -0.875, -1.875, -2.500, -0.875, 0.125, 0.125, -1.125, -0.875, -1.250, -0.500, -3.125, -1.125, -1.500, -2.500, -1.375, -1.250, -1.625, -1.375, -0.125, -1.750, -1.375, -0.625, -2.250, -1.000, -2.250, -1.875, -2.375, -0.875, -1.750, -2.000, 0.750, -1.125, -1.125, -1.000, -0.750, -3.125, -3.125, -0.750, -0.875, -1.000, -2.875, -1.750, -1.750, -1.250, -1.500, -0.875, -0.125, -1.250, -1.125, -3.250, -1.125, -1.125, -1.500, -1.375, -1.000, -1.250, -1.375, -0.250, -1.000, -0.375, -0.750, -2.250, -1.750, -1.000, -1.250, -1.125, -1.500, -0.375, -1.375, -0.750, -1.875, -1.500, -2.500, -4.000, -2.125, -1.750, 0.125, -0.375, -1.500, -1.750, -0.875, -0.750, -1.125, -0.375, -0.500, -1.750, -1.500, -1.250, -1.875, -2.125, 0.625, -0.375, -1.125, -1.125, -1.750, -2.250, -0.875, -2.250, 0.500, -0.875, -1.625, -0.375, -1.500, 0.375, -2.000, -0.125, -1.125, -1.125, -1.750, -1.250, -2.250, -1.500, -1.125, -0.250, -1.000, -0.875, -0.750, -1.500, -1.000, -1.250, -1.750, -1.000, -2.000, -1.875, -0.875, -1.000, -1.875, -1.875, -1.250, -0.875, -1.750, -0.750, -1.375, -0.375, 0.125, -2.625, -1.000, 0.250, -0.500, -1.125, -1.375, -1.125, -1.125, -1.250, -0.125, -1.500, -1.375, -0.250, -0.375, -1.750, -2.250, -2.125, -1.000, -1.875, -0.250, -1.250, -1.125, -0.750, -1.000, -1.000, -2.250, 0.250, -0.500, -1.875, -1.375, -0.750, -0.750, -1.875}};

#endif
