//Numpy array shape [1, 32, 32]
//Min -0.500000000000
//Max 0.468750000000
//Number of zeros 84

#ifndef W13_H_
#define W13_H_

[[intel::fpga_memory]] static constexpr w13_t w13 = {{0.31250, -0.06250, -0.06250, 0.00000, -0.03125, 0.25000, 0.00000, -0.09375, -0.12500, -0.12500, 0.12500, -0.21875, 0.15625, -0.18750, 0.12500, 0.06250, 0.21875, -0.06250, 0.09375, 0.18750, 0.12500, -0.09375, 0.00000, -0.03125, -0.18750, -0.03125, 0.00000, -0.12500, 0.00000, -0.06250, 0.00000, -0.31250, 0.09375, 0.28125, 0.03125, 0.03125, -0.06250, 0.00000, -0.15625, -0.28125, -0.12500, 0.03125, -0.21875, 0.18750, 0.12500, -0.15625, 0.15625, 0.03125, 0.25000, 0.03125, 0.25000, -0.34375, -0.03125, -0.31250, 0.03125, -0.18750, -0.34375, 0.06250, 0.28125, -0.21875, -0.09375, -0.06250, -0.06250, -0.15625, -0.18750, 0.25000, 0.15625, -0.03125, 0.25000, -0.12500, 0.06250, -0.15625, 0.09375, 0.21875, -0.09375, -0.25000, 0.25000, 0.15625, -0.28125, -0.03125, 0.09375, 0.00000, 0.15625, -0.21875, -0.15625, 0.03125, -0.12500, -0.21875, 0.00000, 0.03125, -0.31250, 0.09375, -0.12500, -0.03125, -0.09375, -0.09375, -0.15625, 0.03125, -0.28125, 0.12500, 0.00000, 0.00000, -0.18750, -0.03125, 0.28125, 0.09375, -0.03125, 0.06250, 0.09375, -0.03125, 0.00000, 0.00000, -0.15625, 0.37500, 0.06250, 0.25000, -0.12500, -0.03125, 0.00000, 0.00000, 0.18750, 0.09375, -0.21875, -0.18750, 0.12500, 0.03125, 0.09375, -0.50000, 0.00000, -0.03125, -0.06250, 0.12500, 0.00000, 0.06250, 0.18750, -0.34375, 0.06250, -0.09375, 0.09375, 0.06250, -0.18750, 0.12500, 0.00000, 0.00000, -0.15625, 0.15625, 0.06250, -0.12500, 0.15625, 0.06250, -0.09375, 0.12500, -0.18750, -0.06250, -0.31250, -0.21875, -0.06250, 0.00000, -0.06250, 0.25000, -0.06250, 0.09375, 0.09375, 0.12500, -0.25000, 0.03125, 0.00000, -0.34375, -0.09375, 0.18750, 0.00000, 0.09375, 0.25000, -0.06250, -0.15625, -0.21875, -0.21875, 0.06250, -0.06250, -0.28125, 0.00000, 0.03125, 0.06250, 0.21875, 0.21875, -0.12500, 0.00000, 0.09375, 0.00000, 0.09375, -0.15625, 0.28125, 0.09375, -0.09375, -0.09375, 0.18750, 0.06250, -0.12500, -0.09375, -0.31250, 0.15625, 0.09375, 0.06250, 0.09375, 0.18750, 0.09375, -0.03125, 0.03125, -0.15625, 0.31250, 0.12500, 0.18750, -0.25000, -0.25000, 0.03125, 0.00000, -0.31250, -0.09375, 0.31250, 0.25000, 0.12500, -0.06250, 0.03125, 0.06250, 0.06250, 0.09375, -0.18750, 0.03125, 0.06250, 0.09375, 0.03125, -0.25000, -0.25000, -0.25000, 0.03125, 0.12500, -0.15625, -0.12500, 0.15625, 0.15625, 0.28125, -0.03125, -0.21875, -0.03125, 0.28125, -0.06250, 0.03125, -0.28125, -0.31250, 0.15625, 0.12500, 0.28125, 0.12500, -0.03125, -0.06250, -0.25000, -0.28125, 0.03125, -0.15625, -0.06250, 0.18750, 0.09375, -0.12500, 0.25000, -0.06250, 0.09375, 0.03125, 0.00000, 0.15625, 0.28125, -0.03125, 0.28125, 0.06250, 0.46875, -0.06250, 0.12500, 0.18750, 0.12500, 0.09375, 0.09375, -0.09375, -0.21875, 0.06250, 0.00000, 0.31250, 0.09375, 0.09375, -0.12500, 0.09375, -0.18750, -0.21875, 0.18750, 0.18750, 0.09375, -0.25000, -0.21875, -0.15625, 0.00000, 0.03125, -0.09375, -0.09375, 0.21875, -0.06250, -0.31250, 0.03125, 0.31250, 0.00000, 0.00000, 0.12500, -0.03125, 0.25000, -0.09375, -0.06250, -0.03125, -0.28125, 0.09375, 0.15625, 0.06250, 0.00000, 0.09375, 0.00000, 0.12500, -0.15625, 0.18750, 0.03125, -0.03125, -0.25000, -0.21875, 0.03125, 0.18750, 0.12500, -0.18750, -0.28125, -0.25000, -0.15625, -0.25000, 0.06250, 0.25000, -0.18750, -0.15625, 0.09375, 0.03125, -0.09375, 0.06250, -0.18750, 0.18750, -0.15625, 0.21875, 0.12500, 0.00000, 0.03125, -0.31250, -0.21875, 0.00000, -0.25000, 0.00000, -0.06250, 0.09375, 0.15625, -0.03125, -0.28125, -0.15625, 0.15625, -0.06250, 0.09375, -0.25000, -0.06250, -0.37500, -0.15625, 0.09375, -0.21875, -0.25000, 0.00000, -0.21875, 0.25000, 0.03125, 0.18750, 0.12500, 0.25000, 0.15625, -0.31250, 0.12500, 0.03125, 0.21875, -0.06250, -0.12500, 0.09375, -0.25000, 0.06250, -0.18750, -0.09375, 0.15625, 0.00000, 0.06250, 0.12500, -0.21875, 0.12500, -0.18750, -0.09375, 0.06250, -0.18750, 0.00000, -0.18750, -0.28125, -0.09375, 0.25000, 0.03125, -0.31250, -0.15625, 0.12500, 0.15625, 0.06250, -0.28125, 0.03125, 0.03125, -0.12500, -0.25000, 0.21875, 0.21875, 0.12500, -0.25000, 0.03125, -0.21875, 0.06250, -0.31250, -0.06250, 0.03125, 0.06250, 0.09375, -0.25000, -0.06250, 0.31250, 0.09375, -0.06250, 0.09375, -0.15625, -0.18750, 0.00000, -0.09375, -0.06250, 0.12500, -0.06250, 0.09375, 0.25000, -0.03125, 0.00000, 0.21875, 0.21875, -0.06250, 0.09375, 0.15625, 0.09375, -0.21875, -0.06250, -0.12500, -0.12500, 0.09375, -0.03125, 0.06250, 0.09375, -0.15625, 0.25000, -0.03125, 0.25000, -0.31250, -0.18750, 0.21875, -0.28125, 0.09375, 0.12500, -0.12500, -0.06250, -0.12500, 0.03125, -0.28125, -0.06250, 0.00000, 0.09375, -0.03125, -0.37500, -0.09375, 0.12500, 0.18750, -0.06250, -0.25000, 0.09375, -0.15625, 0.37500, 0.25000, -0.15625, -0.06250, 0.12500, -0.18750, 0.03125, 0.09375, 0.15625, -0.03125, 0.03125, 0.09375, 0.00000, -0.25000, -0.06250, 0.03125, 0.03125, -0.06250, 0.03125, 0.03125, 0.12500, 0.25000, -0.12500, 0.09375, 0.21875, 0.09375, 0.25000, 0.28125, -0.09375, 0.25000, 0.03125, -0.25000, -0.15625, 0.12500, 0.31250, -0.03125, 0.09375, 0.06250, 0.12500, 0.12500, 0.31250, -0.06250, -0.06250, 0.15625, 0.00000, -0.15625, 0.00000, -0.03125, 0.12500, 0.06250, 0.15625, 0.03125, -0.25000, -0.09375, -0.09375, 0.12500, 0.25000, 0.06250, -0.03125, -0.25000, -0.15625, -0.18750, 0.00000, -0.09375, 0.15625, -0.03125, -0.15625, -0.09375, 0.00000, -0.21875, 0.15625, -0.03125, 0.25000, -0.28125, -0.12500, -0.09375, 0.15625, 0.28125, -0.12500, -0.06250, -0.12500, -0.34375, 0.03125, -0.12500, -0.21875, 0.15625, -0.03125, 0.03125, 0.12500, -0.25000, 0.15625, -0.15625, 0.09375, -0.12500, 0.18750, -0.25000, -0.06250, 0.03125, -0.18750, -0.12500, 0.09375, 0.21875, -0.12500, 0.03125, 0.12500, -0.34375, 0.25000, 0.25000, -0.06250, 0.03125, 0.25000, 0.06250, 0.25000, 0.21875, -0.09375, -0.03125, 0.06250, 0.15625, 0.06250, 0.21875, 0.09375, -0.28125, 0.18750, 0.12500, -0.28125, -0.06250, -0.09375, 0.28125, -0.31250, -0.18750, 0.18750, -0.09375, -0.31250, -0.18750, 0.15625, 0.06250, 0.34375, -0.28125, 0.00000, 0.21875, 0.21875, -0.28125, 0.00000, 0.09375, -0.18750, -0.18750, 0.03125, -0.31250, 0.09375, -0.09375, -0.03125, -0.06250, 0.28125, -0.25000, 0.25000, -0.15625, 0.03125, 0.15625, 0.09375, -0.25000, -0.31250, -0.15625, 0.12500, -0.03125, 0.12500, 0.31250, 0.09375, -0.12500, -0.18750, -0.25000, -0.03125, 0.21875, -0.09375, -0.31250, 0.12500, -0.03125, -0.25000, -0.25000, -0.06250, 0.03125, 0.15625, -0.25000, 0.06250, -0.12500, -0.40625, -0.12500, -0.25000, -0.18750, -0.18750, 0.12500, 0.03125, -0.03125, -0.37500, 0.18750, -0.18750, 0.03125, 0.21875, 0.37500, 0.03125, -0.03125, 0.25000, -0.06250, 0.00000, 0.00000, -0.34375, 0.25000, 0.00000, 0.25000, 0.03125, 0.25000, 0.03125, 0.25000, -0.15625, -0.31250, 0.18750, 0.12500, -0.28125, 0.09375, 0.00000, 0.21875, 0.03125, 0.00000, 0.00000, -0.09375, -0.06250, 0.03125, -0.21875, 0.18750, 0.12500, 0.06250, 0.00000, -0.18750, 0.46875, -0.18750, 0.25000, -0.03125, 0.28125, -0.09375, 0.34375, 0.12500, 0.00000, 0.15625, 0.06250, -0.09375, -0.12500, 0.00000, 0.03125, -0.15625, -0.06250, 0.06250, -0.12500, 0.09375, -0.06250, 0.09375, 0.03125, -0.06250, 0.00000, 0.03125, 0.06250, -0.03125, 0.00000, 0.00000, -0.15625, -0.03125, 0.31250, 0.21875, 0.06250, 0.18750, -0.15625, 0.06250, -0.06250, -0.03125, -0.25000, 0.25000, -0.09375, 0.25000, 0.09375, -0.18750, 0.09375, -0.06250, -0.18750, 0.09375, 0.06250, -0.06250, -0.09375, 0.12500, -0.09375, -0.06250, 0.25000, 0.06250, -0.40625, 0.00000, 0.06250, 0.21875, 0.12500, -0.09375, -0.18750, 0.09375, -0.03125, 0.00000, 0.03125, -0.21875, -0.25000, -0.28125, 0.00000, 0.15625, -0.06250, -0.12500, 0.18750, 0.28125, -0.06250, -0.21875, 0.06250, 0.03125, 0.03125, 0.12500, 0.25000, -0.12500, 0.06250, -0.12500, 0.09375, -0.03125, 0.00000, -0.03125, 0.00000, -0.21875, -0.18750, 0.06250, 0.37500, -0.06250, 0.00000, -0.06250, 0.18750, -0.18750, 0.03125, 0.21875, 0.18750, 0.00000, -0.06250, -0.34375, -0.25000, 0.09375, 0.00000, -0.03125, -0.06250, 0.00000, 0.00000, 0.25000, 0.06250, -0.03125, -0.03125, -0.09375, -0.06250, 0.09375, -0.21875, 0.03125, 0.12500, -0.15625, -0.03125, 0.09375, -0.18750, -0.25000, 0.31250, -0.18750, -0.03125, 0.12500, -0.09375, 0.28125, 0.18750, -0.15625, -0.09375, 0.28125, -0.03125, 0.06250, -0.06250, -0.03125, 0.28125, -0.09375, 0.00000, -0.18750, -0.03125, 0.03125, 0.06250, -0.09375, 0.06250, -0.25000, -0.21875, -0.09375, -0.12500, -0.15625, -0.03125, -0.15625, 0.09375, 0.12500, 0.25000, 0.12500, -0.31250, -0.25000, -0.03125, 0.03125, -0.21875, 0.00000, -0.09375, 0.25000, 0.12500, -0.25000, 0.06250, 0.03125, 0.06250, -0.25000, -0.03125, -0.15625, 0.31250, -0.18750, 0.00000, -0.28125, 0.09375, -0.12500, -0.09375, -0.09375, -0.25000, 0.03125, 0.18750, -0.25000, -0.31250, -0.21875, 0.15625, 0.06250, 0.06250, -0.28125, 0.06250, 0.03125, -0.06250, 0.21875, 0.12500, -0.34375, 0.18750, -0.25000, 0.03125, -0.15625, 0.09375, 0.09375, 0.09375, 0.00000, 0.00000, 0.03125, -0.12500, 0.18750, 0.00000, 0.31250, -0.09375, 0.03125, -0.25000, 0.03125, 0.06250, 0.12500, 0.28125, -0.12500, -0.28125, 0.00000, -0.28125, 0.31250, 0.25000, -0.06250, -0.25000, 0.09375, -0.15625, -0.09375, 0.03125, -0.06250, -0.06250, 0.00000, -0.37500, -0.06250, -0.28125, 0.06250, 0.28125, 0.12500, -0.09375, -0.31250, 0.09375, 0.15625, -0.03125, -0.06250, 0.15625, 0.12500, -0.25000, -0.06250, -0.03125, -0.03125, 0.25000, 0.28125, -0.15625, 0.25000, 0.15625, -0.03125, -0.03125, 0.03125, 0.21875, 0.34375, 0.15625, 0.12500, 0.00000, 0.21875, 0.00000, 0.31250, 0.06250, 0.12500, -0.18750, 0.12500, 0.06250, 0.09375, -0.31250, -0.03125, 0.09375, 0.03125, -0.15625, 0.12500, -0.06250, 0.18750, 0.15625, 0.03125, -0.31250, 0.21875, -0.03125, 0.28125, -0.18750, -0.15625, 0.00000, -0.21875, 0.21875, -0.06250, 0.00000, 0.18750, -0.12500, 0.00000, 0.28125}};

#endif
