//Numpy array shape [1, 32, 32]
//Min -0.250000000000
//Max 0.125000000000
//Number of zeros 328

#ifndef W44_H_
#define W44_H_

[[intel::fpga_memory]] static constexpr w44_t w44 = {{-0.125, -0.125, -0.125, 0.125, 0.000, -0.250, -0.125, 0.000, 0.000, 0.000, 0.000, 0.000, 0.000, -0.125, -0.125, 0.000, 0.125, 0.000, 0.125, 0.125, 0.000, -0.125, 0.125, -0.125, 0.125, 0.125, 0.000, -0.125, 0.125, 0.000, -0.125, 0.125, 0.000, 0.125, 0.125, -0.125, -0.125, 0.125, 0.125, -0.125, -0.125, 0.125, 0.125, -0.125, -0.250, 0.125, 0.125, -0.125, 0.125, 0.125, -0.125, 0.000, 0.000, 0.125, -0.125, -0.125, 0.125, -0.125, 0.125, -0.125, 0.000, -0.125, 0.125, 0.125, 0.125, 0.125, 0.125, 0.000, -0.125, 0.125, 0.000, -0.125, 0.000, -0.125, 0.000, 0.125, -0.250, -0.250, 0.125, -0.125, -0.125, 0.000, 0.125, 0.000, 0.125, 0.125, -0.125, -0.250, 0.125, 0.125, -0.125, -0.250, 0.125, 0.000, 0.000, -0.125, 0.125, -0.250, -0.125, 0.125, 0.000, -0.125, -0.250, 0.000, 0.125, -0.125, 0.125, 0.000, -0.125, -0.250, -0.125, 0.000, -0.125, -0.125, -0.250, 0.125, 0.125, -0.125, 0.000, 0.000, -0.125, 0.000, -0.125, 0.125, -0.125, 0.125, -0.250, 0.125, 0.000, -0.125, 0.000, 0.125, 0.000, 0.000, 0.000, 0.125, 0.000, 0.000, -0.250, 0.125, 0.125, -0.125, 0.125, 0.125, -0.125, 0.125, 0.125, 0.125, 0.000, 0.000, 0.125, 0.000, 0.125, 0.125, -0.125, 0.000, -0.125, 0.000, 0.125, -0.250, -0.250, 0.000, -0.250, -0.125, 0.000, 0.000, -0.125, -0.125, 0.000, 0.125, -0.125, 0.000, -0.125, 0.125, 0.000, 0.125, 0.125, -0.250, 0.125, -0.125, 0.000, -0.125, 0.000, 0.000, 0.000, 0.000, 0.000, -0.125, 0.125, -0.125, 0.125, 0.000, -0.125, 0.125, 0.000, -0.125, -0.125, 0.000, 0.000, 0.125, 0.125, 0.125, -0.250, 0.125, -0.250, -0.125, 0.000, 0.125, 0.000, 0.125, -0.125, 0.000, 0.125, -0.250, 0.125, -0.125, 0.000, -0.125, 0.125, 0.000, 0.125, 0.125, 0.125, 0.000, -0.125, 0.000, -0.125, 0.000, 0.125, 0.000, 0.000, 0.125, -0.125, 0.125, -0.125, -0.125, -0.125, -0.125, 0.000, 0.000, -0.125, 0.000, -0.125, 0.000, 0.000, -0.125, 0.125, 0.125, 0.125, -0.125, 0.000, -0.125, 0.000, 0.125, 0.000, 0.125, -0.125, 0.125, 0.000, -0.125, 0.000, 0.125, 0.000, 0.125, 0.000, 0.125, 0.000, -0.125, -0.250, 0.125, 0.000, 0.125, 0.125, 0.125, 0.125, 0.125, 0.000, -0.250, 0.000, 0.125, 0.000, 0.000, -0.125, 0.000, 0.000, -0.250, 0.125, -0.250, -0.250, 0.125, 0.000, -0.125, 0.000, 0.125, 0.000, -0.250, 0.125, -0.125, -0.125, 0.125, 0.125, -0.125, 0.000, 0.000, 0.125, -0.125, 0.125, -0.250, 0.125, 0.000, -0.125, -0.250, -0.250, 0.000, 0.125, 0.125, -0.125, 0.000, 0.125, -0.125, -0.125, 0.000, 0.125, 0.000, 0.000, 0.125, 0.125, 0.000, -0.125, 0.125, 0.125, -0.125, -0.125, -0.125, 0.000, 0.000, -0.125, -0.125, 0.000, 0.125, -0.250, -0.250, 0.125, 0.125, -0.125, -0.250, 0.125, -0.125, 0.125, 0.125, 0.125, 0.125, 0.125, 0.125, -0.125, 0.125, 0.000, 0.125, 0.000, 0.125, 0.125, 0.000, 0.125, 0.000, -0.250, -0.125, 0.000, 0.125, 0.125, 0.000, 0.125, 0.125, 0.125, 0.125, 0.125, -0.125, 0.125, -0.125, -0.125, 0.000, -0.125, 0.125, 0.125, 0.000, -0.125, 0.000, -0.125, -0.125, 0.125, -0.125, -0.125, -0.250, 0.000, 0.125, -0.125, -0.125, 0.000, 0.000, -0.125, 0.125, -0.125, 0.125, 0.125, 0.125, 0.125, 0.125, 0.000, -0.250, -0.125, 0.125, 0.125, 0.000, 0.125, 0.000, 0.125, -0.250, -0.125, 0.125, 0.125, 0.125, 0.000, 0.125, -0.250, 0.125, 0.000, 0.000, -0.125, -0.125, 0.000, -0.125, 0.000, 0.000, 0.000, 0.000, 0.000, 0.125, -0.125, -0.125, -0.125, -0.250, 0.000, 0.000, 0.125, -0.125, 0.125, 0.125, 0.000, 0.000, 0.000, 0.125, -0.125, 0.125, 0.125, -0.125, 0.000, 0.125, -0.125, 0.000, 0.125, 0.000, 0.125, 0.000, 0.000, 0.000, 0.125, 0.125, -0.125, -0.125, -0.250, -0.250, 0.125, -0.125, -0.125, 0.000, -0.125, 0.000, 0.125, 0.125, -0.125, 0.125, -0.250, 0.125, 0.000, 0.000, -0.125, 0.125, 0.000, -0.250, 0.125, 0.125, 0.125, 0.000, 0.125, 0.125, 0.125, -0.125, -0.125, 0.125, -0.250, 0.125, -0.125, -0.250, -0.125, 0.125, 0.000, 0.125, 0.125, 0.000, 0.125, 0.125, 0.125, 0.125, 0.125, 0.125, -0.125, 0.000, 0.125, 0.000, -0.125, -0.250, 0.125, -0.125, 0.000, 0.125, -0.250, 0.125, -0.125, 0.125, -0.250, 0.000, 0.000, 0.000, 0.000, 0.125, 0.000, -0.125, 0.000, 0.125, -0.125, -0.250, -0.250, 0.125, 0.125, -0.125, 0.125, 0.125, 0.125, -0.250, 0.000, 0.000, 0.125, 0.000, -0.125, -0.125, 0.125, 0.000, 0.000, 0.125, 0.000, -0.125, 0.125, 0.125, 0.125, 0.125, 0.125, -0.125, 0.125, -0.250, 0.000, -0.125, -0.250, -0.125, -0.250, 0.000, 0.000, 0.125, -0.250, -0.125, 0.000, 0.000, 0.000, -0.125, -0.250, -0.125, 0.125, -0.125, 0.000, -0.250, 0.000, -0.125, 0.000, 0.000, 0.125, 0.000, 0.000, 0.125, -0.125, 0.125, -0.125, 0.000, 0.000, 0.000, 0.125, -0.125, 0.000, 0.000, 0.125, 0.125, 0.000, 0.125, -0.125, 0.000, 0.000, 0.000, 0.000, 0.125, -0.125, 0.000, 0.125, 0.000, 0.125, -0.125, -0.125, 0.125, 0.125, -0.125, -0.125, 0.125, -0.250, -0.125, 0.000, 0.125, 0.125, -0.125, -0.250, 0.125, -0.125, 0.125, 0.000, -0.250, -0.125, 0.125, 0.000, 0.125, 0.000, 0.000, -0.125, -0.250, 0.000, 0.125, -0.250, 0.000, 0.125, 0.000, 0.000, -0.125, -0.125, 0.125, 0.125, 0.125, -0.125, -0.250, 0.125, 0.000, 0.000, 0.125, 0.125, 0.125, 0.000, -0.125, 0.000, -0.125, 0.125, 0.000, 0.000, 0.000, 0.000, 0.125, 0.125, 0.125, -0.125, 0.000, -0.125, -0.250, -0.250, -0.125, 0.000, -0.125, -0.125, 0.125, -0.125, 0.125, -0.250, -0.250, 0.000, 0.125, 0.125, 0.000, 0.125, 0.000, 0.000, 0.000, -0.125, 0.125, -0.250, 0.000, 0.000, 0.000, -0.125, 0.000, -0.250, 0.125, 0.125, 0.000, 0.000, -0.125, 0.125, 0.125, 0.000, -0.125, -0.125, 0.125, 0.000, 0.125, 0.000, -0.250, -0.125, 0.125, 0.000, -0.125, -0.125, 0.000, 0.125, 0.125, -0.125, 0.125, 0.125, 0.000, 0.000, 0.000, 0.000, 0.000, -0.125, -0.125, 0.000, 0.000, 0.125, -0.250, 0.000, -0.125, 0.000, 0.000, 0.000, 0.125, 0.000, 0.000, -0.125, -0.250, 0.000, 0.125, -0.125, 0.125, 0.125, 0.000, 0.125, 0.125, 0.000, 0.125, 0.000, 0.000, -0.125, 0.000, 0.125, -0.125, 0.125, -0.250, 0.125, -0.125, -0.125, 0.125, 0.125, -0.125, -0.125, 0.125, 0.000, 0.000, 0.125, -0.125, 0.000, -0.250, -0.125, 0.000, 0.000, 0.000, 0.125, 0.000, 0.125, 0.000, 0.000, -0.125, -0.125, -0.125, -0.250, 0.125, 0.000, -0.125, -0.125, 0.125, 0.000, 0.000, 0.000, -0.125, 0.000, 0.000, 0.000, 0.000, 0.125, 0.125, 0.125, 0.125, -0.250, 0.125, 0.000, 0.000, -0.125, -0.125, 0.125, 0.125, 0.000, 0.000, -0.250, -0.250, 0.000, 0.125, 0.000, 0.125, 0.000, 0.125, -0.125, -0.125, -0.125, -0.125, 0.125, 0.000, 0.125, 0.000, 0.125, 0.000, 0.000, 0.125, 0.000, -0.125, -0.250, 0.000, -0.125, -0.125, 0.125, 0.125, -0.125, 0.000, 0.000, 0.000, -0.125, 0.000, 0.125, -0.250, 0.000, -0.125, -0.125, -0.125, 0.125, 0.000, -0.125, 0.000, 0.125, 0.125, -0.125, 0.000, -0.125, 0.000, 0.000, 0.000, -0.125, 0.125, 0.125, 0.000, 0.125, 0.000, 0.125, 0.125, 0.125, 0.000, 0.125, -0.125, 0.000, 0.000, 0.125, 0.125, -0.125, 0.000, 0.125, 0.125, 0.000, 0.125, 0.000, 0.125, 0.125, 0.125, -0.250, 0.125, 0.125, 0.000, 0.125, -0.125, -0.125, -0.125, 0.125, 0.125, -0.125, -0.125, 0.125, -0.125, -0.125, 0.000, -0.125, 0.000, 0.000, 0.000, 0.000, 0.000, 0.000, -0.125, 0.125, -0.125, 0.000, 0.125, 0.000, -0.125, 0.125, -0.250, -0.250, -0.250, -0.125, 0.000, -0.125, -0.125, 0.125, 0.125, -0.125, 0.125, -0.125, 0.125, -0.125, 0.000, -0.125, 0.125, 0.000, 0.000, -0.125, 0.000, 0.000, -0.125, 0.000, 0.125, 0.000, -0.125, 0.125, 0.125, 0.000, 0.125, 0.125, 0.000, -0.125, -0.125, 0.000, 0.000, 0.000, 0.125, 0.125, 0.000, -0.125, 0.125, 0.000, -0.250, 0.000, 0.125, -0.125, 0.125, 0.000, 0.000, 0.000, -0.125, 0.125, 0.125, 0.000, 0.000, 0.000, 0.000, 0.125, -0.125, -0.125, 0.125, 0.000, 0.000, -0.250, 0.000, 0.125, 0.000, 0.125, 0.125, 0.125, -0.125, 0.125, 0.125, 0.125, -0.250, 0.000, 0.125, -0.125, -0.125, -0.125, 0.125, 0.000, -0.125}};

#endif
